tree
version=v4
num_class=3
num_tree_per_iteration=3
label_index=0
max_feature_idx=11
objective=multiclass num_class:3
feature_names=regime_filter volatility_compression break_of_structure volume_confirmation momentum_ignition confluence_score ema_200 bb_width bb_width_sma rsi volume_ratio volume_ma
feature_infos=[-1:1] [0:1] [-1:1] [0:1] [-1:1] [-0.65000000000000002:1] [0.96106396593777266:1.1644147155948892] [0.00023822758465439627:0.041631265132495876] [0.00060675202574809041:0.017522140461011072] [0:93.451344371535811] [0.00034032126327252914:9.2192040919130438] [43.550000000000011:21866.650000000001]
tree_sizes=3341 3416 3339 3398 3423 3401 3408 3425 3411 3391 3441 3401 3391 3445 3423 3412 3441 3405 3417 3464 3420 3395 3422 3437 3407 3457 3420 3424 3439 3411 3451 3447 3418 3383 3427 3467 3403 3439 3445 3393 3421 3410 3404 3429 3452 3434 3456 3425 3423 3443 3422 3404 3486 3431 3417 3427 3434 3388 3470 3422 3430 3455 3424 3408 3419 3449 3416 3463 3451 3401 3443 3460 3447 3444 3444 3398 3421 3400 3423 3460 3435 3433 3419 3394 3407 3451 3442 3459 3436 3429 3460 3436 3428 3453 3441 3444 3438 3462 3436

Tree=0
num_leaves=31
num_cat=0
split_feature=6 8 6 7 8 5 11 11 5 9 7 8 6 11 7 11 6 8 11 7 3 8 7 8 8 6 6 6 6 8
split_gain=303.14 178.633 166.89 86.5367 91.8933 99.3828 96.0583 94.8238 71.1596 65.6228 129.765 104.488 83.7082 65.5602 57.0164 55.4462 46.7848 191.356 44.4535 75.6574 42.3808 56.252 115.582 45.1937 40.9896 68.7874 38.161 81.4175 273.224 104.801
threshold=1.0487038501621804 0.0016582847427648545 1.0207261597586879 0.0029222347575810596 0.0038101732556544239 0.12500000000000003 1026.9750000000004 4800.3500000000013 0.47500000000000003 55.008239365058721 0.003309610110649563 0.0030585676462375716 0.97810867736697782 2771.775000000001 0.0049273764657886627 7501.2250000000013 1.0468427688756254 0.0024985154475380502 11686.1 0.0041786162518651698 1.0000000180025095e-35 0.00099467726353313045 0.0013385604580215186 0.0022204751032307529 0.0065003450523047875 1.029662765847295 1.0629338541288582 1.0715371500267608 1.0709316698346998 0.0038612158413638248
decision_type=2 2 2 2 2 2 2 2 2 2 2 2 2 2 2 2 2 2 2 2 2 2 2 2 2 2 2 2 2 2
left_child=1 2 -1 16 5 6 -5 -7 18 14 11 -11 -12 -2 -9 -16 -3 -18 -6 -20 21 22 -15 -22 -21 -26 -25 28 29 -28
right_child=13 3 -4 4 8 7 -8 9 -10 10 12 -13 -14 20 15 -17 17 -19 19 24 23 -23 -24 26 25 -27 27 -29 -30 -31
leaf_value=-4.4660524059555762 -4.4545016707552119 -4.4307027721017169 -3.1357675069599598 -3.7362961185065551 -4.4060039738390007 -4.3478048593781882 -4.3704809557751618 -4.3984823793399261 -4.1917532644526387 -3.9500631117997012 -3.4525020067208212 -2.7890871999489821 -4.1413727017939337 -3.3308759588126486 -3.7414716950132827 -4.4660524059555762 -3.3098541727544459 -4.4660524059555762 -3.6023311961729139 -4.420766111521683 -4.4291694166982252 -4.4349853846815526 -4.4660524059555762 -4.4349516813763179 -4.2693634175892274 -3.5200720333364721 -4.3348181346095735 -4.3523779689143307 -2.8619987306449204 -3.4789424519182499
leaf_weight=0.40522335097193618 536.76237437874079 55.163230951875448 0.5637890100479126 0.61664422973990696 57.453623805195093 5.0741010904312125 18.83407661691308 2.2199192270636545 4.7393513657152644 0.3876049444079398 0.49331538379192341 0.38760494440793991 4.1579439491033554 0.35236813127994437 0.82806510850787141 0.38760494440793991 0.47569697722792526 1.4447093382477758 0.40522335097193618 3.3122604340314865 24.401493091136217 239.80413174256682 0.6166442297399044 6.4307183958590057 1.7794590629637244 0.36998653784394253 3.047984335571531 12.755726352334021 0.40522335097193707 0.40522335097193707
leaf_count=23 30466 3131 32 35 3261 288 1069 126 269 22 28 22 236 20 47 22 27 82 23 188 1385 13611 35 365 101 21 173 724 23 23
internal_value=-4.43197 -4.36887 -3.69207 -4.37301 -4.3453 -4.27736 -4.35038 -4.17544 -4.37863 -4.07675 -3.96849 -3.36958 -4.06831 -4.44417 -4.24775 -3.9725 -4.42226 -4.17965 -4.39262 -4.26152 -4.42494 -4.43345 -4.05326 -4.38175 -4.31042 -4.14039 -4.33153 -4.2915 -4.09025 -4.23438
internal_weight=984.481 159.499 0.969012 158.53 101.447 33.3869 19.4507 13.9362 68.0599 8.86206 5.42647 0.77521 4.65126 824.982 3.43559 1.21567 57.0836 1.92041 63.3206 5.86693 288.22 240.773 0.969012 47.4464 5.46171 2.14945 23.0449 16.6142 3.85843 3.45321
internal_count=55878 9053 55 8998 5758 1895 1104 791 3863 503 308 44 264 46825 195 69 3240 109 3594 333 16359 13666 55 2693 310 122 1308 943 219 196
is_linear=0
shrinkage=1


Tree=1
num_leaves=31
num_cat=0
split_feature=6 1 6 10 11 10 10 11 8 7 8 11 10 10 11 8 11 6 10 8 7 11 8 8 8 8 6 8 11 9
split_gain=834.637 326.265 186.017 145.32 116.98 141.181 86.3583 81.5669 289.94 80.4155 95.8536 80.0176 72.7859 64.1707 62.2316 56.3289 57.8757 58.3274 96.6956 90.0955 56.2112 54.1943 55.4285 80.012 53.0989 52.2919 46.6775 77.4061 87.0917 50.1971
threshold=1.0487038501621804 1.0000000180025095e-35 0.97810867736697782 1.0039557848173553 2771.775000000001 2.6749366227521798 0.83767827663462413 6075.4250000000002 0.0026347055563186957 0.0046467725401416185 0.0055898769944016918 11083.125000000004 0.94368021400912483 0.59969703355289572 6885.8750000000009 0.0027282677244565511 1692.8500000000001 1.0066697074290298 2.2814652886895295 0.0044072707127666673 0.003338177290075055 10046.500000000002 0.0057476652097189929 0.0047193156738435842 0.0017306938906620369 0.0031717158206962166 1.0003639118328549 0.0039177999983373507 7501.2250000000013 33.631532323317757
decision_type=2 2 2 2 2 2 2 2 2 2 2 2 2 2 2 2 2 2 2 2 2 2 2 2 2 2 2 2 2 2
left_child=1 2 3 21 -2 13 -4 24 14 -5 11 -11 -10 -6 -9 -8 25 18 19 26 -7 -1 23 -23 -3 -17 -18 28 29 -28
right_child=4 7 6 9 5 20 15 8 12 10 -12 -13 -14 -15 -16 16 17 -19 -20 -21 -22 22 -24 -25 -26 -27 27 -29 -30 -31
leaf_value=-0.069790777008971197 -0.003195566688915439 -0.45487528253709836 -0.077595438295867319 -0.13497024559413059 -0.0028340781615873792 -0.079107525464257672 -0.1050167612035922 -0.43283340848329988 -0.037104878959289142 -0.53655987461882204 -0.20081368160120999 -1.0033289722286727 -0.18092627643988815 -0.037738239858225761 -1.038984944962758 -0.78550339334407604 -0.22456373238441601 -0.12935407730317103 -0.67458299487979967 -0.080532325280327624 -0.28213896342161604 -0.1903727938915159 -0.1809262764398881 -0.91775463766686605 -0.034809865793754238 -0.23690563911620169 -0.15730998281081823 -0.81856620442477313 0.0080040725926706045 -0.60427020667951015
leaf_weight=5.1417285501956957 1151.8228088989854 0.75613655149936576 46.729238882660866 1.3988526202738274 193.75999132171273 6.3137402050197107 29.640552818775177 0.79394337907433399 24.385403785854578 3.2135803438723087 1.4366594478487966 1.2854321375489233 13.761685237288473 410.9980225674808 0.90736386179924011 0.75613655149936576 14.404401306062946 28.392927508801222 1.1720116548240174 9.035831790417431 7.4101382046937943 0.75613655149936654 2.911125723272562 0.75613655149936676 148.31618457660079 1.0207843445241449 0.90736386179923956 0.90736386179924 1.4366594478487966 2.0415686890482903
leaf_count=136 30466 20 1236 37 5125 167 784 21 645 85 38 34 364 10871 24 20 381 751 31 239 196 20 77 20 3923 27 24 24 38 54
internal_value=-0.0264327 -0.0979079 -0.152093 -0.30857 -0.0126138 -0.0301539 -0.132712 -0.0539267 -0.117471 -0.476008 -0.55638 -0.669922 -0.0889889 -0.0265552 -0.756114 -0.16142 -0.189249 -0.180681 -0.229413 -0.211255 -0.188733 -0.18018 -0.308495 -0.554064 -0.0369406 -0.470351 -0.271221 -0.398196 -0.311223 -0.466744
internal_weight=2112.57 342.265 153.344 16.8997 1770.3 618.482 136.445 188.921 39.8484 7.33452 5.93567 4.49901 38.1471 604.758 1.70131 89.7156 60.075 58.2981 29.9052 28.7332 13.7239 9.56513 4.4234 1.51227 149.072 1.77692 19.6974 5.29296 4.38559 2.94893
internal_count=55878 9053 4056 447 46825 16359 3609 4997 1054 194 157 119 1009 15996 45 2373 1589 1542 791 760 363 253 117 40 3943 47 521 140 116 78
is_linear=0
shrinkage=1


Tree=2
num_leaves=31
num_cat=0
split_feature=6 1 6 10 7 8 8 7 0 7 10 6 8 10 6 9 10 7 6 7 7 6 10 10 7 9 9 7 10 10
split_gain=528.442 229.368 241.205 188.005 142.767 213.363 198.513 127.476 119.095 58.3557 69.5039 82.2047 54.0827 77.803 78.2627 140.765 66.3213 49.6643 39.5025 70.5473 57.6449 56.9605 52.9406 110.348 76.6377 37.2823 56.8654 79.0031 36.021 34.5176
threshold=1.0487038501621804 1.0000000180025095e-35 0.98150305386744707 0.91582355938624704 0.0073884052130137904 0.0055898769944016918 0.0045323152587327361 0.0061849082930575021 -1.0000000180025095e-35 0.0024360224763387652 2.5994679726757828 1.0582215034362961 0.0027144763233485614 0.83767827663462413 1.0468427688756254 51.707047646369297 2.9684232166910731 0.0044100583511957683 1.0171892832659732 0.0048669001434421977 0.0038908884640629872 1.0013000919271842 1.5607510445050454 1.1660146144916093 0.0043641890839458608 51.249918101887729 32.342513822501978 0.0068527167258429751 0.79871975070051027 1.7504340382557617
decision_type=2 2 2 2 2 2 2 2 2 2 2 2 2 2 2 2 2 2 2 2 2 2 2 2 2 2 2 2 2 2
left_child=1 2 3 -1 6 8 -5 -8 -6 -2 -11 17 -4 -14 16 -16 18 -12 19 20 -15 -21 23 -22 -25 26 -23 -28 -3 -27
right_child=9 28 12 4 5 -7 7 -9 -10 10 11 -13 13 14 15 -17 -18 -19 -20 21 22 25 -24 24 -26 29 27 -29 -30 -31
leaf_value=-4.1618067670321368 -4.294804510392896 -4.2764451251780748 -4.2423067261978247 -4.0749569440838558 -2.5130901443245648 -4.0190777464474214 -2.6115585644633672 -3.7998933620475484 -3.4292083278209642 -4.2734157487843367 -4.0190777464474214 -4.1935635954537096 -4.2142470681468058 -4.1081157928539236 -3.0424065529758311 -4.30342505593915 -3.6017292760644004 -3.357661178716663 -4.1819898597461673 -4.2122193151587846 -3.946825561248704 -4.1221536461381731 -4.1523655477716694 -2.765364609142984 -3.6729158044574923 -4.2016586504368476 -4.0732391387315605 -3.181268709552151 -4.2168324611624284 -3.6991870232692277
leaf_weight=5.295926094055174 562.60939864814281 44.477504305541515 17.997873835265636 4.1581294722855091 0.55855470523238182 1.0550477765500543 0.4137442260980605 0.49649307131767273 0.97229893133044265 394.87748938798904 0.70336518436670192 10.012610271573065 21.866382349282503 2.0480339191854133 0.4758058600127687 0.41374422609806061 0.64130355045199294 0.4758058600127697 12.764009375125168 7.6749553941190225 1.2619198895990855 0.8274884521961211 0.66199076175689686 0.45511864870786656 0.4758058600127697 1.9652850739657881 0.43443143740296342 0.57924191653728485 58.896490585058928 0.4137442260980605
leaf_count=256 27196 2150 870 201 27 51 20 24 47 19088 34 484 1057 99 23 20 31 23 617 371 61 40 32 22 23 95 21 28 2847 20
internal_value=-4.26951 -4.19263 -4.13121 -3.93277 -3.77431 -3.47199 -3.92855 -3.25974 -3.09495 -4.28438 -4.26993 -4.14706 -4.16743 -4.14198 -4.09116 -3.62893 -4.10477 -3.75219 -4.11568 -4.0653 -3.9057 -4.13109 -3.76049 -3.64218 -3.22922 -3.98353 -3.8146 -3.56354 -4.24248 -4.11427
internal_weight=1155.96 187.281 83.9073 12.9502 7.65427 2.5859 5.06837 0.910237 1.53085 968.679 406.069 11.1918 70.9571 52.9593 31.0929 0.88955 30.2033 1.17917 29.562 16.798 4.90287 11.8951 2.85484 2.19284 0.930925 4.22019 1.84116 1.01367 103.374 2.37903
internal_count=55878 9053 4056 626 370 125 245 44 74 46825 19629 541 3430 2560 1503 43 1460 57 1429 812 237 575 138 106 45 204 89 49 4997 115
is_linear=0
shrinkage=1


Tree=3
num_leaves=31
num_cat=0
split_feature=7 10 8 7 5 7 9 10 8 7 8 7 9 9 8 10 10 10 10 8 8 10 9 9 10 10 8 5 10 7
split_gain=131.682 96.4129 78.6147 37.9744 49.8885 40.377 33.4046 30.036 21.3334 17.4467 15.1091 22.5323 20.9804 27.6777 24.4694 15.9686 14.6395 14.3994 13.8474 24.8896 49.3611 14.1313 21.0969 19.2547 30.5033 13.1451 17.5202 33.057 13.1074 12.6334
threshold=0.0019937887194569725 0.62096174920910419 0.0022204751032307529 0.0049273764657886627 0.17500000000000002 0.0072086585382480925 69.896660842161765 0.88724457012122204 0.0024985154475380502 0.0063012291167278906 0.0059434779824789931 0.0070347034167193082 67.217487823564355 64.41824741312918 0.0048275265228534337 1.3023133632845367 1.0230750624866951 2.7552870485083507 2.0188573595395272 0.0035428790059126884 0.0052050028000009086 0.79371322506249498 49.077771035035163 72.870637253990523 0.71840550194454489 1.5874813078131693 0.0066560129400661883 -1.0000000180025095e-35 1.0360138766735718 0.0057681031116080346
decision_type=2 2 2 2 2 2 2 2 2 2 2 2 2 2 2 2 2 2 2 2 2 2 2 2 2 2 2 2 2 2
left_child=-1 -2 -3 16 25 6 7 8 -6 29 11 12 13 14 15 -11 -4 -8 21 -20 -21 22 -7 -24 -25 -5 -27 -28 -18 -9
right_child=1 2 3 4 5 18 17 9 -10 10 -12 -13 -14 -15 -16 -17 28 -19 19 20 -22 -23 23 24 -26 26 27 -29 -30 -31
leaf_value=-0.022140909981086702 -0.017613181781930071 -0.0047992005554843235 0.01292113900276381 0.020770617814248996 0.36484041901817277 0.3975144214088262 0.006965355446285796 0.21095370837343783 0.059351219349443964 0.41761446562980287 0.09493811216710106 0.052243832648106926 0.076865046185557534 0.78636932705660523 0.67719367361056149 0.10224973343743045 0.15728359178864493 0.30481064367450278 -0.03385486294903791 0.64891312089580699 -0.033960114951564119 0.017534234759685071 0.022759021927962933 0.0501891095446097 0.62339330349269129 0.063734024116017737 0.57005649423701577 -0.033884931072927262 0.03806637482030889 0.087488301710505853
leaf_weight=401.18959165178239 164.3417511023581 131.28354125842452 83.504689978435636 43.06766289845109 0.62712674960494652 0.57941397652030602 4.9068142976611844 7.3504659421741945 6.4417713470757008 0.88534922711551256 0.77618334628641594 0.57968298345804203 0.44939900375902642 0.48766333423554886 0.49219614639878262 0.73434405587613583 2.3549832180142394 0.44237421639263619 0.760799715295433 0.58564517088234402 0.48279040493071079 15.56862669251859 3.5359377712011337 0.59535127319395531 0.38039091601967812 8.1939565949141944 0.49677890166640282 0.41656856797635633 109.90043114125729 2.885141734033823
leaf_count=23420 9415 7445 4591 2242 33 25 253 333 338 34 36 25 18 23 23 35 126 17 35 20 20 757 180 31 19 387 24 20 5810 143
internal_value=-1.67137e-05 0.0149485 0.0274291 0.0416519 0.0664341 0.102366 0.143515 0.171092 0.0864531 0.211958 0.295162 0.337991 0.392318 0.446853 0.368454 0.274633 0.0287744 0.031597 0.0528561 0.184711 0.340345 0.0411814 0.113495 0.0770196 0.273651 0.0323115 0.0868875 0.294605 0.0405674 0.176152
internal_weight=994.297 593.108 428.766 297.483 101.722 49.5475 27.0585 21.7093 7.0689 14.6404 4.40482 3.62863 3.04895 2.59955 2.11189 1.61969 195.76 5.34919 22.489 1.82924 1.06844 20.6597 5.09109 4.51168 0.975742 52.175 9.1073 0.913347 112.255 10.2356
internal_count=55878 32458 23043 15598 5071 2398 1311 1041 371 670 194 158 133 115 92 69 10527 270 1087 75 40 1012 255 230 50 2673 431 44 5936 476
is_linear=0
shrinkage=0.05


Tree=4
num_leaves=31
num_cat=0
split_feature=6 10 11 11 10 6 6 10 8 7 8 6 11 8 7 6 7 10 11 6 6 11 8 5 7 11 10 5 6 11
split_gain=602.425 137.804 132.636 110.094 76.4823 64.4124 96.8972 63.3084 51.3994 53.4242 40.2311 38.5425 92.8574 38.4217 40.6787 77.0065 37.5527 36.768 35.8128 90.4556 35.1072 31.0418 30.821 26.4054 25.2752 24.3559 23.8785 23.8481 27.4931 69.855
threshold=1.0487038501621804 0.69682444614784145 4800.3500000000013 1980.7250000000001 0.59969703355289572 1.039341864849703 1.0199618459177822 3.109021923060848 0.0016582847427648545 0.0027175410492440472 0.0056719416985027199 1.0447355963443379 8596.1750000000011 0.002311699109561157 0.0021721556138542676 0.98406697724678927 0.0058651718173251891 1.9223967831414428 2202.6250000000005 1.0921473055386286 0.97810867736697782 11686.1 0.001693738626664363 -1.0000000180025095e-35 0.003338177290075055 9408.4250000000047 1.2432539862537213 0.075000000000000011 1.0095120384018303 5985.6250000000009
decision_type=2 2 2 2 2 2 2 2 2 2 2 2 2 2 2 2 2 2 2 2 2 2 2 2 2 2 2 2 2 2
left_child=1 -1 8 -2 -5 6 10 16 26 -10 13 12 -7 -4 15 -15 -6 20 19 -18 25 27 -9 -23 -24 -12 -3 -16 -29 -30
right_child=3 2 5 4 7 11 -8 22 9 -11 17 -13 -14 14 21 -17 18 -19 -20 -21 -22 23 24 -25 -26 -27 -28 28 29 -31
leaf_value=-0.0062834784573392371 0.026220194175541098 -0.32255744036361134 0.0043477929551019086 0.023929927720644645 -0.0014328942084366337 -0.64056662535350239 -0.018854717354863021 -0.0013761342005950293 -0.00074611690519900994 -0.062891627931506863 0.010143541688189648 -0.15189952932508799 -0.018304327840540324 0.034284523130922548 -0.098171782514385839 -0.50431247577218163 -0.50560295589499504 -0.33655002444528048 -0.031815756880111477 0.034189748754991027 0.013759291631796311 -0.14042999316138127 -0.066928030041950942 -0.30851132734345477 -0.23192886503204965 -0.19949491274837444 -0.077043165033624142 -0.13805580275859641 -0.47362139866770037 -0.02988717697123874
leaf_weight=108.39635906368494 829.08587411046028 2.2323411107063285 4.9795512929558745 258.25897891819477 551.16175493970513 1.6297595612704747 30.952024273574352 4.19841219857335 68.535267155617476 69.806994985789061 2.0501803457737031 3.2010663524270058 0.94841543957591046 1.0067252665758126 45.403516177088022 1.9474294222891328 1.3894266188144677 1.0769158080220211 72.641060207039118 1.7582061812281606 12.14158136770129 5.0399739816784859 3.9510531648993474 4.3563618957996351 5.6254443526268005 4.2733853347599506 1.7800747938454149 33.233524143695831 2.0663146711885925 1.5539417341351507
leaf_count=2696 22863 25 110 7045 14654 37 686 100 1731 1538 45 51 21 25 854 36 38 19 1874 48 286 52 98 56 105 87 28 595 42 33
internal_value=0.000194187 -0.0545636 -0.0721126 0.0130786 0.000958782 -0.103981 -0.097673 -0.00830026 -0.0372212 -0.0321045 -0.118151 -0.267781 -0.411659 -0.131023 -0.138148 -0.320768 -0.0059706 -0.0525584 -0.0389704 -0.204085 -0.0359955 -0.132262 -0.114332 -0.218356 -0.163853 -0.131527 -0.213637 -0.122427 -0.152309 -0.283155
internal_weight=2134.68 406.612 298.215 1728.07 898.984 155.861 150.081 640.725 142.355 138.342 119.129 5.77924 2.57818 99.5873 94.6078 2.95415 626.95 19.5421 75.7887 3.14763 18.4651 91.6536 13.7749 9.39634 9.5765 6.32357 4.01242 82.2573 36.8538 3.62026
internal_count=55878 9053 6357 46825 23962 3035 2926 16917 3322 3269 2240 109 58 1803 1693 61 16614 437 1960 86 418 1632 303 108 203 132 53 1524 670 75
is_linear=0
shrinkage=0.05


Tree=5
num_leaves=31
num_cat=0
split_feature=6 1 6 7 10 6 10 10 7 6 6 7 5 6 10 10 10 7 7 6 7 7 9 9 9 7 6 0 9 6
split_gain=389.201 125.343 41.7663 41.4469 38.0035 37.4636 26.524 25.3863 35.0277 25.0266 51.4941 56.266 44.2474 63.4108 23.9846 21.6884 21.2418 25.6494 19.8052 36.8753 43.2847 87.1642 22.2037 17.4515 30.4734 33.307 107.979 25.5323 21.008 18.9976
threshold=1.0539789361760079 1.0000000180025095e-35 0.98150305386744707 0.003338177290075055 2.5994679726757828 1.0582215034362961 2.9684232166910731 0.79871975070051027 0.0020074152184924505 1.0045541303793113 1.0024583435019452 0.0022026323197117631 0.37500000000000006 0.99622919851469105 0.75645224124598853 0.54547701854314534 0.69682444614784145 0.0078202609549044861 0.0038908884640629872 1.0525455201209244 0.0032296751233438091 0.0028569116226861138 31.626792853971121 51.135805143017159 46.427950217773713 0.0087134723336097578 1.0337199986965977 1.0000000180025095e-35 35.045711641415757 0.99713797091626255
decision_type=2 2 2 2 2 2 2 2 2 2 2 2 2 2 2 2 2 2 2 2 2 2 2 2 2 2 2 2 2 2
left_child=1 2 16 -2 14 -6 15 -3 -9 10 11 12 -10 -14 -5 -4 -1 -18 19 -17 21 -21 -20 24 25 29 28 -26 -27 -24
right_child=3 7 6 4 5 -7 -8 8 9 -11 -12 -13 13 -15 -16 18 17 -19 22 20 -22 -23 23 -25 27 26 -28 -29 -30 -31
leaf_value=0.025417523650631157 -0.022020996630936734 -0.0088622695453803354 0.0069434450611175315 -0.019381441437410503 0.38059483868785193 0.066118488439981832 0.23807102821731077 -0.0095787020145958208 0.078342299725696327 0.029078068511457368 0.51336160054998048 0.054645816614446036 0.70775468769143535 0.05222125088494084 0.013805801068440777 0.021328730025331977 0.1205295644569031 0.2292294943171049 0.01470437377757668 0.1058025704932451 -0.033805203732665129 1.0040034656414456 0.18135085167224388 0.074986806762548125 0.30324969290347498 0.30587090038938175 0.69283985656535252 0.11174554433661499 0.023377006066780434 0.048128951698028763
leaf_weight=3.3674597349017885 679.78657953999937 52.102749409154058 12.258538838475941 100.58527459576726 1.0840012766420821 7.4962045922875404 2.384680686518549 26.79795160330832 1.3370510526001518 27.017813747748733 0.73099020123481651 18.641487374901772 1.0107957776635883 0.58091835118830193 118.67265577055514 22.638220207765702 15.070205774158241 8.4811656326055509 8.2202610466629249 0.71631368622183689 0.80356699787080277 0.43360587768256664 3.2475702427327731 29.362678809091449 3.9978285115212193 0.88009579293429796 0.96238197200000275 3.0825070980936289 2.6093704644590616 15.204788964241741
leaf_count=128 34050 2509 551 4956 24 293 56 1233 60 1225 33 813 32 26 5762 963 348 150 328 35 39 21 114 1172 125 22 27 107 101 575
internal_value=-0.000340218 0.0533501 0.0872186 -0.0158353 0.00262066 0.105849 0.0731898 0.0180285 0.0364354 0.0614376 0.100641 0.0866545 0.290388 0.468509 -0.00141895 0.0694242 0.142879 0.159674 0.0777351 0.0393144 0.247744 0.444492 0.0917186 0.102386 0.129217 0.101192 0.223946 0.219876 0.0946262 0.0715757
internal_weight=1169.57 261.941 133.721 907.625 227.838 8.58021 106.802 128.22 76.117 49.3191 22.3012 21.5703 2.92877 1.59171 219.258 104.418 26.9188 23.5514 92.1592 24.5917 1.95349 1.14992 67.5675 59.3472 29.9845 22.9042 4.45185 7.08034 3.48947 18.4524
internal_count=55878 10793 4862 45085 11035 317 4236 5931 3422 2189 964 931 118 58 10718 4180 626 498 3629 1058 95 56 2571 2243 1071 839 150 232 123 689
is_linear=0
shrinkage=0.05


Tree=6
num_leaves=31
num_cat=0
split_feature=6 11 8 10 6 8 7 5 10 7 7 11 8 6 6 7 8 7 6 10 8 7 8 10 6 7 8 11 6 8
split_gain=184.658 57.6716 57.4089 42.4514 44.816 74.604 34.2985 43.2944 27.982 24.9726 24.7639 44.0406 46.2829 31.2898 57.5313 40.5376 24.4788 21.0357 20.9283 20.286 19.6 25.0979 19.4697 18.7083 20.8512 18.5187 18.2158 30.6846 42.9768 38.6005
threshold=1.0487038501621804 2566.6750000000006 0.0031717158206962166 0.62096174920910419 1.130029293834679 0.0027723177881432064 0.002679064556914326 0.47500000000000003 2.6749366227521798 0.0034203075937675599 0.0048669001434421977 7840.9749999999995 0.0030585676462375716 1.0003639118328549 0.97279763740332559 0.0065618214630713241 0.0025263857899767306 0.0058651718173251891 1.0217115791444009 0.56200633571702985 0.0018882478156004069 0.0039294316670487319 0.002595386719273732 3.6085458177834497 1.0711713176636488 0.0037830409889998968 0.0024615230955224248 1942.0750000000003 1.0189641982820887 0.0021487126051802541
decision_type=2 2 2 2 2 2 2 2 2 2 2 2 2 2 2 2 2 2 2 2 2 2 2 2 2 2 2 2 2 2
left_child=2 -2 10 -3 8 -6 -4 19 17 -10 11 26 16 14 -12 18 -13 -5 -15 -8 -11 -22 -17 24 -23 -18 27 -1 -29 -30
right_child=1 3 6 4 5 -7 7 -9 9 20 13 12 -14 15 -16 22 25 -19 -20 -21 21 23 -24 -25 -26 -27 -28 28 29 -31
leaf_value=-0.034114496631781559 -0.022138711117471635 -0.022366445367144668 -0.018765563317670302 0.0054473481633025974 -0.033733920286639602 0.91368318603876697 -0.014693801990313036 0.13707746012512526 0.0032026319499601366 -0.033859007968929294 0.42852128165051451 0.3916819355688787 0.63785902128344374 0.38254149741933535 -0.02171064450873976 0.29996883246352302 -0.034143842845639427 0.049070448043056512 0.093548096086170332 0.040522535641385096 0.46204704561349708 0.020358263030463675 -0.033910310829376157 -0.034357580975852238 0.30700462285921221 0.2588631918386109 0.024368990374553146 0.040466102336268836 0.11525107599905926 0.34436310371273277
leaf_weight=3.9919927734881666 471.16681249253452 96.963147729635239 33.379590375348926 182.38173070549965 0.47491434589028259 0.36941738985478878 20.964225945994258 10.221647003665565 4.0481609776616079 1.0180566795170305 0.86167684197425654 0.81976816058158863 0.59492595307528962 3.1183019485324626 4.0184292159974575 0.59881872311234507 1.463925786316395 32.570448689162731 0.78396623022854317 80.53582408092916 0.80646526254713524 0.918839171528817 1.6121982075273988 0.97302730381488789 2.0495526716113091 0.85374016687273968 23.161290429532528 8.0728046000003797 4.6621867083013049 3.0352419055998325
leaf_count=161 28805 5856 1860 10080 27 20 1117 363 203 45 10 19 19 93 137 24 51 1637 31 3385 31 32 67 29 60 34 1057 378 130 117
internal_value=-0.000108798 -0.0109871 0.0424781 0.00530157 0.0171928 0.380786 0.0257079 0.0389954 0.0158269 0.0983907 0.0846883 0.068781 0.233521 0.152199 0.0577865 0.227566 0.15685 0.0120573 0.324483 0.0291179 0.165221 0.207908 0.0565155 0.155908 0.218276 0.0737888 0.0544563 0.0897185 0.121065 0.205594
internal_weight=996.491 793.741 202.751 322.574 225.611 0.844332 145.101 111.722 224.766 9.8141 57.6493 46.6559 3.73236 10.9934 4.88011 6.11329 3.13743 214.952 3.90227 101.5 5.76594 4.74788 2.21102 3.94142 2.96839 2.31767 42.9235 19.7622 15.7702 7.69743
internal_count=55878 46825 9053 18020 12164 47 6725 4865 12117 400 2328 1966 123 362 147 215 104 11717 124 4502 197 152 91 121 92 85 1843 786 625 247
is_linear=0
shrinkage=0.05


Tree=7
num_leaves=31
num_cat=0
split_feature=6 1 11 11 8 6 8 3 8 7 6 5 11 6 9 8 11 6 9 6 11 8 8 8 6 6 9 7 11 11
split_gain=495.212 129.294 90.2964 54.6457 55.3048 51.5634 143.245 29.2963 39.0876 28.5292 26.647 24.0526 21.951 22.0677 24.2506 21.6134 29.9004 26.3717 55.6753 26.1696 20.6893 20.3815 18.8001 20.0896 24.1305 42.9988 26.443 26.0926 23.2028 40.2464
threshold=1.0531499065222116 1.0000000180025095e-35 2463.0250000000005 3453.9500000000007 0.0025823132500430875 1.0525455201209244 0.0026998091080897451 1.0000000180025095e-35 0.0019703991708407281 0.0019377354970262206 1.0487038501621804 0.12500000000000003 5985.6250000000009 1.0876822393141483 54.008118035524397 0.007907862499730493 11686.1 1.029662765847295 56.960149283479147 0.97981502767299544 11686.1 0.0016354147136699562 0.0020913531208223159 0.004231917278433541 1.0199618459177822 1.0195204227661188 42.538573084004874 0.0035704020266742399 8406.6000000000022 3938.650000000001
decision_type=2 2 2 2 2 2 2 2 2 2 2 2 2 2 2 2 2 2 2 2 2 2 2 2 2 2 2 2 2 2
left_child=1 5 9 -3 11 10 -7 -4 -9 -2 15 -5 -10 14 -14 16 21 19 -19 -18 -6 -1 -23 24 25 27 -27 -24 29 -26
right_child=2 3 7 4 20 6 -8 8 12 -11 -12 -13 13 -15 -16 -17 17 18 -20 -21 -22 22 23 -25 28 26 -28 -29 -30 -31
leaf_value=-0.20287014950540044 0.030080683384651488 0.0078720988597360975 0.0045728900418804484 0.0073055294257130983 -0.025912772861083969 -0.55978392637547769 0.014356094058289984 0.012703437897898701 -0.031332901984514591 0.012175117243655954 -0.010957412195003409 -0.19315070191188385 -0.071390403979245662 -0.0014613136613152661 -0.22266616604204753 0.019527999805515631 -0.14936672479037905 -0.46955561817183056 -0.0097909132131968647 -0.001478699004064399 -0.13692185202256899 0.0096257021943849507 -0.034826520675590292 -0.046562810746121792 -0.086311405158754767 -0.12011507513558224 -0.42823439003376934 -0.10110754847650034 -0.16220602736325501 0.025112358733927267
leaf_weight=2.7269435673952094 603.45809181034565 115.48960690945387 561.93009452149272 1.8502450063824634 107.78806654363871 1.9341915696859349 2.4784977249801159 48.741852886974812 60.826584506779909 352.35456767305732 20.998550049960613 7.8260644599795341 6.1392394341528398 4.1880677975714198 4.6603203155100346 6.5872255973517886 10.901809249073269 1.5824204050004476 1.1277208216488359 4.1225871481001368 4.3673470206558695 8.0510363578796369 18.718992460519075 69.208148546516895 16.504188124090433 1.2913540527224534 1.5111960954964159 71.809072483330965 3.7988458201289168 15.923103265464304
leaf_count=38 17427 2935 15184 45 2533 38 58 1270 1438 9867 531 90 137 99 92 125 94 19 23 76 78 177 372 1271 300 24 26 1115 67 329
internal_value=0.000314369 -0.0434373 0.013544 -0.0167706 -0.0401305 -0.067846 -0.237304 -0.000290083 -0.0222292 0.0234799 -0.064912 -0.154821 -0.0446878 -0.0988881 -0.13667 -0.0697566 -0.0723443 -0.134683 -0.278242 -0.108787 -0.0302355 -0.0670683 -0.0652777 -0.0683117 -0.0799298 -0.0933736 -0.28626 -0.0874023 -0.0452941 -0.0315979
internal_weight=2138.9 496.597 1642.3 237.321 121.832 259.276 4.41269 686.486 124.556 955.813 254.863 9.67631 75.8142 14.9876 10.7996 233.865 227.277 17.7345 2.71014 15.0244 112.155 209.543 206.816 198.765 129.557 93.3306 2.80255 90.5281 36.2261 32.4273
internal_count=55878 10364 45514 5681 2746 4683 96 18220 3036 27294 4587 135 1766 328 229 4056 3931 212 42 170 2611 3719 3681 3504 2233 1537 50 1487 696 629
is_linear=0
shrinkage=0.05


Tree=8
num_leaves=31
num_cat=0
split_feature=7 10 11 11 5 7 10 8 5 7 8 8 10 7 8 11 8 10 10 9 9 8 11 11 8 8 7 10 8 8
split_gain=222.977 107.65 87.2037 67.3916 31.6979 49.905 30.9769 30.4384 32.3586 29.6157 48.1141 47.2178 62.0458 57.7561 35.9699 29.3199 48.6479 28.0087 26.4116 22.3354 41.3507 34.1245 35.9469 43.7114 24.0712 23.3562 48.9538 29.5728 22.2835 25.6802
threshold=0.0035704020266742399 0.75645224124598853 7118.925000000002 4088.2250000000004 0.12500000000000003 0.0022026323197117631 3.3099758834277457 0.0028708494325726248 0.62500000000000011 0.0019937887194569725 0.0023709719825721286 0.001669573286787483 0.910072007737457 0.0021138161173909569 0.0020356076780885996 4195.9000000000005 0.0027282677244565511 2.9684232166910731 1.2508024289500626 40.703880421738916 49.710984500231142 0.0054256599036077166 6257.0250000000005 2848.6500000000001 0.0031048966771700646 0.0043694218469722971 0.0052695162369404318 1.1879977575113727 0.0055053574099877475 0.0039804874026761359
decision_type=2 2 2 2 2 2 2 2 2 2 2 2 2 2 2 2 2 2 2 2 2 2 2 2 2 2 2 2 2 2
left_child=3 -2 6 -1 -5 9 7 8 -3 15 11 -11 13 -13 -14 16 -6 -7 28 -9 21 22 23 -21 -25 27 -27 -26 29 -4
right_child=1 2 18 4 5 17 -8 19 -10 10 -12 12 14 -15 -16 -17 -18 -19 -20 20 -22 -23 -24 24 25 26 -28 -29 -30 -31
leaf_value=-0.021060607140028595 -0.0042754222431133811 0.0008225111248298801 0.042808434852003391 -0.0072004402588586635 -0.033784727017382263 0.011731513913880836 0.14570778917436053 0.013142992950127892 0.30495498595501896 -0.033793921891881774 0.087286362917349314 1.1029172244361634 -0.033801742810936203 0.3193097543996512 0.44497983964850119 0.025380121185152052 0.65658052370706554 0.40658762290826495 0.13818059840263855 0.02900323394197479 0.040118917211659832 0.0050637738221245001 -0.010646522210288816 0.51575132654935352 0.075792156043079886 0.66947882896537347 0.13717885417753103 0.32079744007834715 0.0048601716892425822 0.13141611898384717
leaf_weight=691.81681892834604 132.01946374215186 72.037513481453061 14.278732076287268 54.449834885075688 0.51379643753171211 41.683422241359949 5.8254511579871169 29.65804991684854 0.88533652573823829 0.68411379680037354 4.9160582888871431 0.52784510701894793 0.67426048777997472 0.42406090348958969 0.93804906867444515 8.4427459035068733 0.50696796551346779 0.4540045689791431 26.778626291081309 2.3843633458018285 41.120211143046618 3.8404042087495318 2.1250169593840829 0.90922766923904408 2.7244225312024355 0.85299550369381882 0.87500365823507309 2.2477929797023535 8.9868371821939927 19.135265866294503
leaf_count=35513 6375 3230 486 2571 26 1923 144 1185 38 34 161 27 33 15 30 403 25 18 671 105 1625 154 73 37 97 35 27 59 312 446
internal_value=-0.000480923 0.0318437 0.0521638 -0.0151862 0.0203958 0.0455376 0.0324567 0.0283246 0.0045149 0.116178 0.185952 0.335274 0.433738 0.753831 0.244756 0.0559818 0.309089 0.0159858 0.0993054 0.0483422 0.0666314 0.134943 0.176101 0.21581 0.274344 0.241585 0.399939 0.186552 0.0747535 0.0935516
internal_weight=1172.72 366.685 234.665 806.032 114.215 59.7653 165.486 159.66 72.9229 17.6279 8.16439 3.24833 2.56422 0.951906 1.61231 9.46351 1.02076 42.1374 69.1795 86.7375 57.0794 15.9592 12.1188 9.99381 7.60944 6.70021 1.728 4.97222 42.4008 33.414
internal_count=55878 15099 8724 40779 5266 2695 6809 6665 3268 754 300 139 105 42 63 454 51 1941 1915 3397 2212 587 433 360 255 218 62 156 1244 932
is_linear=0
shrinkage=0.05


Tree=9
num_leaves=31
num_cat=0
split_feature=11 10 6 8 6 10 7 8 8 10 5 5 7 7 11 8 8 6 6 6 6 11 6 5 7 6 6 8 5 11
split_gain=150.303 85.1088 49.3672 66.7651 70.2351 27.1551 24.9958 24.1747 86.0659 64.4697 24.6959 31.2647 24.2327 35.7301 51.7719 30.0099 108.592 38.4124 26.216 22.8198 18.6202 39.4052 18.5929 25.1621 17.8237 16.6126 40.1229 24.6421 28.8307 23.0093
threshold=2771.775000000001 0.62096174920910419 1.0531499065222116 0.0015593611518581918 1.0430597351780426 2.5322590746212144 0.0020677228030663857 0.0075721164262508621 0.007907862499730493 0.9210488339436893 0.12500000000000003 0.22500000000000003 0.0070347034167193082 0.0048669001434421977 7372.0750000000007 0.0040375890275348479 0.0051351297826259289 1.0195204227661188 1.0045541303793113 1.130029293834679 1.1635236294426432 1284.4250000000004 0.99784493358598647 0.12500000000000003 0.0034203075937675599 1.0217115791444009 1.0171892832659732 0.0023834778597233704 0.52500000000000013 1192.6500000000005
decision_type=2 2 2 2 2 2 2 2 2 2 2 2 2 2 2 2 2 2 2 2 2 2 2 2 2 2 2 2 2 2
left_child=6 -2 3 4 -3 19 -1 10 9 -9 -5 12 13 -12 15 17 -17 18 -15 -4 25 -22 23 -10 -7 26 -8 -28 29 -29
right_child=1 2 5 7 -6 24 20 8 22 -11 11 -13 -14 14 -16 16 -18 -19 -20 -21 21 -23 -24 -25 -26 -27 27 28 -30 -31
leaf_value=-0.027307991865094444 -0.016207079972486469 0.052295471900434737 0.010171887098925365 0.021751805945102148 0.61641421515343142 0.011253104790258008 -0.028616626479159024 0.095018876461911178 0.32778116893949644 0.69997658063399093 0.072221313330327011 0.035407577731379279 0.029428229427540462 0.19592067697203258 0.049377746094169325 0.77028751579164179 -0.033935606016480734 -0.034101353283037629 0.45991287074799392 0.23860081378544939 -0.03369208997683968 0.50237273307172214 -0.033918929992075679 0.03491230478925357 0.13861238339085777 -0.010595689522976418 0.41371649107102643 0.15620173371407528 0.36587710752651431 -0.033832745281928985
leaf_weight=321.25432770140469 119.74263403378427 1.1343556530773633 186.55531366914511 63.745045308023691 1.0743292104452846 4.4337038919329625 9.5394017770886439 0.77411852404475023 1.1056284829974177 1.0215755831450222 15.040895219892265 44.418859174475074 9.4400913510471565 2.8060994409024698 4.1630760282278061 1.056694960221648 0.69634885527193535 1.2204321529716251 1.4144620709121225 1.0997717771679152 0.88485186174511798 0.55962908454239368 3.3490913212299347 2.1784057915210724 7.2215550001710653 183.75574748869985 0.67018207907676597 3.1419784873723984 0.87540701776742924 3.2307068221271038
leaf_count=20679 7062 19 9946 2647 24 220 452 30 40 32 578 1596 334 39 117 34 28 41 23 37 56 35 146 90 208 11059 27 90 35 154
internal_value=-0.000179607 0.020231 0.0325581 0.0537575 0.326689 0.0161101 -0.0186337 0.0498028 0.132106 0.439181 0.0449854 0.063439 0.0981819 0.122769 0.189712 0.27092 0.450832 0.212954 0.284394 0.0115106 -0.0048833 0.173993 0.0489754 0.133512 0.0901644 -0.00616743 0.0404435 0.123643 0.0968214 0.0598615
internal_weight=997.605 473.692 353.95 154.64 2.20868 199.31 523.912 152.431 8.42882 1.79569 144.002 80.257 35.8381 26.398 11.3571 7.19404 1.75304 5.44099 4.22056 187.655 202.658 1.44448 6.63313 3.28403 11.6553 201.213 17.4577 7.91827 7.24809 6.37269
internal_count=55878 23291 16229 5818 43 10411 32587 5775 338 62 5437 2790 1194 860 282 165 62 103 62 9983 11908 91 276 130 428 11817 758 306 279 244
is_linear=0
shrinkage=0.05


Tree=10
num_leaves=31
num_cat=0
split_feature=6 1 11 10 11 10 10 6 8 10 6 6 6 8 11 8 6 8 5 6 8 8 6 11 8 6 2 6 11 10
split_gain=416.155 92.5667 85.2351 60.9144 44.4396 42.5688 38.9825 32.5421 64.2458 28.7304 25.7463 23.0175 22.653 22.059 20.909 19.763 19.6513 19.3427 33.169 38.913 31.7958 18.6987 18.1896 18.072 23.4432 20.4255 19.3187 25.4158 16.3379 17.2319
threshold=1.0531499065222116 1.0000000180025095e-35 1980.7250000000001 0.59969703355289572 3453.9500000000007 0.81597249785625203 2.5994679726757828 1.0525455201209244 0.0026998091080897451 0.57329690213087858 1.0430597351780426 1.0468427688756254 0.99440081971260397 0.0023977274612141677 3339.3000000000006 0.0020250765787239756 0.97279763740332559 0.0052050028000009086 0.37500000000000006 0.97981502767299544 0.0056719416985027199 0.0058312235526618702 0.9920304786166757 6777.2000000000016 0.0030585676462375716 0.98989348474741068 1.0000000180025095e-35 0.97981502767299544 10046.500000000002 1.2132106054632523
decision_type=2 2 2 2 2 2 2 2 2 2 2 2 2 2 2 2 2 2 2 2 2 2 2 2 2 2 2 2 2 2
left_child=1 7 -2 -4 -3 10 15 9 -9 -1 -6 -12 16 -14 -8 -5 -7 -18 19 -19 -21 -20 23 -11 -25 26 27 28 29 -26
right_child=2 4 3 6 5 12 14 8 -10 22 11 -13 13 -15 -16 -17 17 18 21 20 -22 -23 -24 24 25 -27 -28 -29 -30 -31
leaf_value=-0.00593823204774248 0.025425388677536877 0.0075285420945582424 0.023973821304762583 0.0087843533925338769 0.008188742286069025 -0.010793358268628943 -0.012053496060544072 -0.32389826592504756 0.014565561673128761 -0.029126396598809341 -0.27605890699040575 -0.045422039051663761 -0.14486016454396794 -0.026668526976053555 -0.095469279726978357 -0.010076560939724394 -0.07931241635812776 -0.47990669706992978 -0.22629540323073055 -0.36543646317689643 -0.042347276314984493 -0.00016213072613658339 -0.051287691112119463 -0.17250340390684094 0.008829213068965799 -0.18462567204796809 -0.21781997983455145 0.00025692218511828906 -0.11365177766262069 -0.099685243958337333
leaf_weight=27.277918666601181 748.42673910036683 114.03554994240403 236.08422770723701 222.40882465988398 51.536111552268267 5.5049491710960892 12.904324904084207 3.1965211890637866 2.4974603466689587 13.92979548871517 1.4445206783711899 4.3080090768635273 4.380382038652896 39.972432211041451 17.979012086987495 369.85251813754439 13.939746312797071 1.4570007249712924 1.3406916521489618 1.2475011572241785 1.9546167664229868 2.8734334968030453 179.9764219596982 7.91791958361864 7.401961684226988 4.315412361174821 2.1478772014379492 11.466001141816376 20.95480352640152 7.2337896302342415
leaf_count=627 22434 2935 6845 6122 1253 109 310 38 58 203 25 93 46 820 285 9518 234 24 24 18 44 56 3055 102 100 60 17 181 186 56
internal_value=0.000402109 -0.0379163 0.0130897 0.00234481 -0.0152512 -0.0352397 -0.00584954 -0.0570973 -0.175443 -0.054713 -0.00300994 -0.103337 -0.0606475 -0.0383414 -0.0606147 -0.00299382 -0.0955843 -0.116045 -0.173751 -0.26569 -0.168218 -0.0721047 -0.0599235 -0.0805457 -0.092204 -0.0803242 -0.0711766 -0.0644831 -0.08534 -0.0448046
internal_weight=2139.97 532.311 1607.66 859.229 243.995 129.959 623.145 288.316 5.69398 282.622 57.2886 5.75253 72.6708 44.3528 30.8833 592.261 28.3179 22.813 8.87324 4.65912 3.20212 4.21413 255.344 75.3676 61.4378 53.5198 49.2044 47.0566 35.5906 14.6358
internal_count=55878 10364 45514 23080 5681 2746 16235 4683 96 4587 1371 118 1375 866 595 15640 509 400 166 86 62 80 3960 905 702 600 540 523 342 156
is_linear=0
shrinkage=0.05


Tree=11
num_leaves=31
num_cat=0
split_feature=6 11 11 10 7 10 7 6 7 11 11 8 6 8 11 6 11 8 5 7 5 8 11 8 5 10 9 6 6 6
split_gain=270.821 71.3373 48.6912 38.1171 34.7805 29.6099 28.6665 27.8057 38.6974 27.5821 48.335 55.2078 57.4926 41.6907 38.2819 47.0273 33.6979 25.4958 25.4001 24.6242 23.2 31.57 20.2494 27.621 25.5609 18.3135 25.0692 18.0295 17.3857 61.7319
threshold=1.0539789361760079 7118.925000000002 1709.1250000000002 0.926533277379186 0.0054195828178273068 0.71298541343333888 0.0031090764906491742 1.0024583435019452 0.0050003295711880669 5894.7750000000015 5517.6000000000013 0.0045323152587327361 1.0189641982820887 0.0044916234348962138 2848.6500000000001 1.0447355963443379 2545.3250000000003 0.0055053574099877475 0.17500000000000002 0.0087134723336097578 0.62500000000000011 0.0021376175601115315 7840.9749999999995 0.0040991692344621291 -1.0000000180025095e-35 0.97999683873007271 51.707047646369297 1.0244107204121231 1.0139593638487274 1.0024583435019452
decision_type=2 2 2 2 2 2 2 2 2 2 2 2 2 2 2 2 2 2 2 2 2 2 2 2 2 2 2 2 2 2
left_child=1 4 -2 -3 17 -4 -7 8 22 10 13 -12 -13 14 15 16 -6 18 -1 -9 -8 -22 24 -24 -5 -16 -27 -21 29 -20
right_child=2 3 5 7 9 6 20 19 -10 -11 11 12 -14 -15 25 -17 -18 -19 28 27 21 -23 23 -25 -26 26 -28 -29 -30 -31
leaf_value=0.0012210200369306026 -0.029321378128446759 0.036566616037244523 -0.020853787513104603 0.38866317316589916 0.25848403076016924 -0.0087143339892337066 0.018609625816628124 0.0021389866708146125 0.087757074558412973 -0.0066430499707136673 0.087927179941013289 0.16774916573121257 0.77862211401696968 0.0057323155063845384 -0.018366605631538805 -0.034033451594796198 0.67038865357535027 -0.028915858359650812 0.037815749676685717 -0.034229493395576717 0.45292374964286425 0.056308054491882177 0.055252539430227246 0.22506971588873978 0.1502269920956078 0.19837662586567445 0.02216957384536046 0.21535989414857948 0.02353452989709158 0.23342667722112165
leaf_weight=71.012704493477941 350.12516832910478 40.264567734673619 189.66167186014354 2.3568085394799709 1.3645539376884732 187.52410043030977 135.26724557764828 11.015028808265923 31.238099232316017 10.845914635807274 2.0386899895966049 0.74313346669077851 0.79960596188902855 14.979196498170493 3.1946375127881756 0.83433899283409108 0.78056718222796906 30.437591085210443 20.112474532797936 0.97827107459306661 0.71878914907574598 1.6615281850099561 4.4548722486942989 5.1773333977907896 2.1488403212279072 4.6977487560361606 3.539277782663703 2.7789173536002636 38.277835765853524 5.0450506452471009
leaf_count=2922 19238 1416 9947 38 31 9721 6088 355 484 357 55 26 22 515 120 31 24 1384 696 29 26 65 107 103 44 82 100 52 1624 176
internal_value=-0.000580306 0.0395895 -0.0149361 0.0742184 0.0229287 -0.00515298 0.00400477 0.0994233 0.11882 0.0625236 0.0852757 0.258698 0.484366 0.064143 0.124856 0.284482 0.408368 0.0124065 0.0217614 0.0398412 0.0213326 0.176075 0.187456 0.14653 0.274948 0.0832524 0.122664 0.150374 0.0447553 0.0770433
internal_weight=1174.07 309.116 864.959 100.413 208.703 514.833 325.172 60.1482 45.376 43.8177 32.9718 3.58143 1.54274 29.3903 14.4111 2.97946 2.14512 164.886 134.448 14.7722 137.648 2.38032 14.1379 9.63221 4.50565 11.4317 8.23703 3.75719 63.4354 25.1575
internal_count=55878 10793 45085 2628 8165 25847 15900 1212 776 1363 1006 103 48 903 388 86 55 6802 5418 436 6179 91 292 210 82 302 182 81 2496 872
is_linear=0
shrinkage=0.05


Tree=12
num_leaves=31
num_cat=0
split_feature=11 10 6 8 11 7 8 6 8 11 5 11 10 6 6 7 8 6 6 6 7 1 8 8 6 5 1 6 8 11
split_gain=131.321 69.8166 33.5791 40.8919 32.7802 24.461 20.8701 20.6469 44.4541 55.8968 169.418 29.3548 24.5924 22.312 28.8485 33.3819 42.0633 77.2746 196.409 30.1179 16.6608 43.48 16.2089 38.3187 19.5643 16.9582 25.0285 17.4651 30.8319 19.5728
threshold=2771.775000000001 0.62096174920910419 1.0531499065222116 0.0016811933335379072 3483.4250000000006 0.0020677228030663857 0.002209808881648386 1.1038154556688105 0.0030281513742691714 4542.6500000000015 1.0000000180025095e-35 2896.8750000000005 1.0481623675012497 1.0629338541288582 1.0715371500267608 0.01148461424785832 0.0023977274612141677 1.0673458458025051 1.0647053132784519 1.0711713176636488 0.0011591310405464747 1.0000000180025095e-35 0.0075721164262508621 0.007907862499730493 1.029662765847295 0.12500000000000003 1.0000000180025095e-35 1.0199618459177822 0.0047749519749595874 13286.950000000004
decision_type=2 2 2 2 2 2 2 2 2 2 2 2 2 2 2 2 2 2 2 2 2 2 2 2 2 2 2 2 2 2
left_child=5 -2 3 4 -3 -1 20 12 -9 11 -11 -10 -8 -14 15 16 17 18 -15 -18 21 -4 25 24 -24 -5 27 28 -27 -29
right_child=1 2 6 22 -6 -7 7 8 9 10 -12 -13 13 14 -16 -17 19 -19 -20 -21 -22 -23 23 -25 -26 26 -28 29 -30 -31
leaf_value=-0.02698704593781568 -0.015686090351144648 0.06428627623640959 0.5203248274196971 0.017651266733729232 0.30679153014596555 -0.0045106303169011926 -0.0018198172482047272 -0.020082965874678692 0.35329552820297527 0.078553539873882652 1.2564297864842733 -0.0090649379649193982 -0.011130087440596251 -0.03378719995925928 0.03636457702890087 0.39590074206004572 0.019943487409833104 0.048514212251874946 1.4915362355512818 0.24730385620017784 -0.0072902786515066896 0.01559820383451899 0.12930947797858336 0.040313480196587766 0.38714095350148603 0.11324340184754267 0.017302670759337849 0.016204995962996037 0.003058108777243202 0.31411338581953185
leaf_weight=306.6095829596743 116.33859626296908 2.9747405108064404 0.54080616682767813 67.769443346187472 2.6215751077979803 200.01383513025939 51.643473591655493 3.6354543566703788 0.77358318679034743 0.88886980526149251 0.46497638151049614 2.0139698777347803 13.2146022580564 0.45536654070019666 30.609432740136981 1.0457015130668867 8.3349708262830955 1.1885460820049045 0.39334814809262753 1.7650354001671065 85.013294897973537 2.0222219228744507 1.526937842369078 7.3917484190315008 1.4199544023722408 30.364877820014954 33.912245014682412 14.875223195180293 8.0271900668740255 0.57257199473679143
leaf_count=20679 7062 37 14 2634 39 11908 2721 178 19 39 20 93 646 23 1415 35 349 39 19 25 4672 104 42 276 20 679 1309 519 251 12
internal_value=-0.000247263 0.0181574 0.0286441 0.0449545 0.177887 -0.0181134 0.0149358 0.0288059 0.107508 0.219511 0.483093 0.0914949 0.0231727 0.0458139 0.062997 0.124835 0.101481 0.308733 0.673144 0.059676 -0.0035036 0.122097 0.0404692 0.101092 0.253545 0.0364391 0.0509486 0.0721413 0.0902054 0.027247
internal_weight=998.422 491.799 375.46 171.457 5.59632 506.623 204.004 116.427 7.77685 4.1414 1.35385 2.78755 108.65 57.007 43.7924 13.183 12.1373 2.03726 0.848715 10.1 87.5763 2.56303 165.86 10.3386 2.94689 155.522 87.7521 53.8399 38.3921 15.4478
internal_count=55878 23291 16229 5818 76 32587 10411 5621 349 171 59 112 5272 2551 1905 490 455 81 42 374 4790 118 5742 338 62 5404 2770 1461 930 531
is_linear=0
shrinkage=0.05


Tree=13
num_leaves=31
num_cat=0
split_feature=6 7 10 11 10 8 7 10 11 7 8 8 9 8 10 7 9 6 11 6 6 6 8 11 8 8 7 10 6 8
split_gain=344.177 82.6594 67.8893 58.2921 52.4379 47.0531 36.4306 28.2075 21.5908 19.5842 18.3305 18.4279 27.2783 35.2307 19.8632 19.2545 25.8542 25.4765 17.393 16.6059 18.5514 24.3637 28.2441 23.7094 20.4661 23.0752 22.2511 19.7401 16.7594 22.0624
threshold=1.0531499065222116 0.0019377354970262206 0.5507103415049921 3453.9500000000007 0.59969703355289572 0.0016582847427648545 0.002267365866969229 2.5994679726757828 2202.6250000000005 0.003338177290075055 0.0045728328940612311 0.0040991692344621291 46.938308647103348 0.004231917278433541 1.5336138595953233 0.0054195828178273068 67.553948704053667 1.0447355963443379 1386.1250000000005 0.9920304786166757 1.039341864849703 1.0447355963443379 0.0047749519749595874 11686.1 0.0036081066577860464 0.0029718833534235945 0.0021569246804582472 2.2392657525258688 1.0518216793857378 0.0026998091080897451
decision_type=2 2 2 2 2 2 2 2 2 2 2 2 2 2 2 2 2 2 2 2 2 2 2 2 2 2 2 2 2 2
left_child=2 8 -1 6 -3 -5 -4 18 -2 -9 11 15 -13 -14 -15 -8 17 -17 -6 -7 23 22 -22 24 25 -21 -27 -26 -23 -30
right_child=1 4 3 5 7 19 10 9 -10 -11 -12 12 13 14 -16 16 -18 -19 -20 20 21 28 -24 -25 27 26 -28 -29 29 -31
leaf_value=0.010249994333843689 0.030843386948414216 0.022793804716428133 0.017276236796376677 -0.22003376073958969 0.018433593061323708 -0.063531979659409987 -0.024195644831974977 -0.0036931414105862205 0.0095037351648450535 -0.076445930922559704 0.0034849027486572206 0.00048910752444862409 -0.39179425405128626 -0.011740439553375833 -0.26920757445373639 -0.22974258370843537 0.0075319864000162069 -0.014465012730671332 -0.0053921294841739395 -0.02541299106275819 -0.29896782542262929 -0.032936555043855641 -0.092118057146306942 -0.15509938351349048 -0.010650610237191572 -0.2413542064144136 -0.069470183580354644 -0.14737103590472211 -0.29072755138468354 -0.069390690716459924
leaf_weight=78.892976135015488 512.77878729254007 238.71253248304129 58.467251017689705 4.066913276910781 89.368528246879578 124.02921598777175 46.526613511145115 15.797842573374508 154.16877415776253 22.317869309335947 24.192559987306595 2.9310172758996478 1.5235736966133115 2.1567089594900613 1.1477815173566339 4.3298278413712961 3.5218772105872631 2.0133444592356682 536.0844923146069 45.40595681220293 2.2408066578209382 24.713118784129623 6.2621536701917648 3.9325846731662741 88.828049797564745 1.9925770387053479 34.199359644204378 2.7209897972643367 1.5230923444032658 4.3168894611299038
leaf_count=1981 16351 7216 1500 30 2716 1573 883 413 4440 318 528 61 28 43 16 52 45 35 14060 751 28 438 85 50 1596 39 471 31 17 83
internal_value=0.000476442 0.0125632 -0.0328025 -0.0397195 0.00269701 -0.0509699 -0.0133402 -0.00453262 0.0259106 -0.046292 -0.0336028 -0.0475893 -0.119835 -0.192881 -0.101169 -0.0376489 -0.101099 -0.161413 -0.00198777 -0.0489486 -0.04058 -0.0717714 -0.14663 -0.0337005 -0.0309432 -0.0491514 -0.0789334 -0.0147142 -0.0509383 -0.127116
internal_weight=2139.16 1569.23 569.935 491.042 902.281 344.232 146.811 663.569 666.948 38.1157 88.3433 64.1507 7.75908 4.82806 3.30449 56.3917 9.86505 6.34317 625.453 340.165 216.136 39.0561 8.50296 177.08 173.147 81.5979 36.1919 91.549 30.5531 5.83998
internal_count=55878 45514 10364 8383 24723 5192 3191 17507 20791 731 1691 1163 148 87 59 1015 132 87 16776 5162 3589 651 113 2938 2888 1261 510 1627 538 100
is_linear=0
shrinkage=0.05


Tree=14
num_leaves=31
num_cat=0
split_feature=6 11 11 10 7 10 7 8 6 7 11 11 8 11 6 0 8 7 11 11 6 8 8 8 6 8 11 8 2 1
split_gain=225.417 51.2828 47.0196 27.2492 26.5891 26.3645 25.3964 22.5993 22.2622 22.1936 21.076 26.5062 29.751 19.6136 20.259 22.2569 19.5181 17.8589 32.0137 31.9162 20.0865 27.3866 58.2969 52.6625 21.253 35.3194 20.0059 19.2355 18.6164 33.1264
threshold=1.0539789361760079 7118.925000000002 1709.1250000000002 0.71298541343333888 0.0054195828178273068 0.69682444614784145 0.0031090764906491742 0.0055053574099877475 1.0024583435019452 0.0050003295711880669 5894.7750000000015 5517.6000000000013 0.0044916234348962138 2823.5250000000001 1.0171892832659732 -1.0000000180025095e-35 0.0045323152587327361 0.002082830557214573 4014.525000000001 4195.9000000000005 1.0518216793857378 0.0026207379537890371 0.0022655188676227989 0.0023834778597233704 1.0525455201209244 0.0035862033862294031 6459.8750000000018 0.0016354147136699562 1.0000000180025095e-35 1.0000000180025095e-35
decision_type=2 2 2 2 2 2 2 2 2 2 2 2 2 2 2 2 2 2 2 2 2 2 2 2 2 2 2 2 2 2
left_child=1 4 -2 -4 7 -3 -5 17 9 -7 11 12 13 14 -6 -16 -13 18 -1 -20 27 22 -22 -24 25 -23 -21 -19 -29 -30
right_child=2 5 3 6 10 8 -8 -9 -10 -11 -12 16 -14 -15 15 -17 -18 20 19 26 21 24 23 -25 -26 -27 -28 28 29 -31
leaf_value=-0.027874046728766186 -0.029058669261858031 0.01112702073917978 -0.020348739279093961 -0.0084272398372420652 0.40629831111820369 0.12765350335400824 0.019681055715130034 -0.028790235215117883 0.031166907505774277 0.067339712838144702 -0.0075027852501315289 0.073327065946413472 0.004318845542714572 0.071071595553747674 0.04079451340866537 0.3354206770171102 0.27317699362410058 0.25915323987634437 0.35248348715260303 -0.0064186462782492466 -0.0084569788679689645 -0.033854761541485853 0.68312991369589282 0.18099793230212985 -0.014192965513399176 0.51641182305646205 0.26504053289844615 0.016523435332868874 -0.0020667784306454308 0.34997141648157859
leaf_weight=33.568905854597688 332.06404310278594 21.062534848228097 182.74437748081982 185.43205336481333 0.90513552725315394 22.947810791432858 141.82153538614511 29.733517466112971 23.507976183667779 45.481721177697182 11.178175894543527 2.3082980867475262 15.51085691526532 13.165236119180916 1.9894700981676583 0.94571587629616227 2.5953705832362175 0.85241103172302146 1.0345846936106671 3.6332452651113272 1.8803141582757215 0.62697787210345246 0.83644586428999934 1.3897065911442039 5.0622353218495846 0.54518186300992966 0.83463397622108448 87.801460729911923 1.5554233230650416 1.1715772058814764
leaf_count=1585 19238 814 9947 9721 12 422 6179 1384 667 725 357 55 515 307 46 23 48 26 34 148 46 28 28 36 228 24 20 3127 47 41
internal_value=-0.000657744 0.0342255 -0.0144163 -0.00488257 0.0201164 0.0615852 0.00375402 0.0108184 0.073145 0.0875659 0.0527422 0.0707387 0.0543968 0.100073 0.199496 0.135723 0.179102 0.0191831 -0.00955011 0.102239 0.0302196 0.0962683 0.196527 0.369667 0.0302297 0.222079 0.044292 0.0227454 0.0205194 0.149176
internal_weight=1174.19 332.125 842.062 509.998 219.125 113 327.254 170.527 91.9375 68.4295 48.5983 37.4201 32.5164 17.0056 3.84032 2.93519 4.90367 140.793 39.0714 5.50246 101.722 10.3409 4.10647 2.22615 6.2344 1.17216 4.46788 91.3809 90.5285 2.727
internal_count=55878 10793 45085 25847 8165 2628 15900 6802 1814 1147 1363 1006 903 388 81 69 103 5418 1787 202 3631 390 110 64 280 52 168 3241 3215 88
is_linear=0
shrinkage=0.05


Tree=15
num_leaves=31
num_cat=0
split_feature=6 7 10 6 9 7 1 7 0 9 10 6 10 7 6 7 10 6 9 6 10 7 6 6 9 10 7 6 6 6
split_gain=86.7997 40.1151 26.2834 31.7223 82.5229 20.7649 17.3162 21.7857 16.5579 14.8806 13.7157 16.034 15.3552 27.0413 14.608 23.3897 12.7479 11.8964 10.9019 10.7183 10.5509 14.6038 19.959 25.1981 11.6497 10.3469 10.6409 10.0616 10.2625 12.2287
threshold=1.0487038501621804 0.0019520923833188507 0.62096174920910419 1.1635236294426432 30.911843352723285 0.0056677355217149604 1.0000000180025095e-35 0.010704678278925839 1.0000000180025095e-35 74.607519287489254 0.58920018408258912 1.039341864849703 0.93197186888183581 0.0051289966352375234 1.0430597351780426 0.0029446799564765221 1.8807163454222438 1.0629338541288582 70.940589859294775 1.0362396859370262 1.6295223182700382 0.0032557778071248497 1.029662765847295 0.98989348474741068 51.707047646369297 2.7552870485083507 0.0033651809642941326 1.082123553330441 1.0884085036165476 1.0999042435119295
decision_type=2 2 2 2 2 2 2 2 2 2 2 2 2 2 2 2 2 2 2 2 2 2 2 2 2 2 2 2 2 2
left_child=6 -2 -3 5 -5 25 7 8 20 10 18 -12 14 -14 -13 -16 -7 -18 -8 -10 21 22 23 -1 -22 -4 -27 -28 -29 -30
right_child=1 2 3 4 -6 16 9 -9 19 -11 11 12 13 -15 15 -17 17 -19 -20 -21 24 -23 -24 -25 -26 26 27 28 29 -31
leaf_value=0.36266152943429519 -0.023036177296135715 -0.01994119370803148 -0.00095261487172259218 0.75611245383761805 -0.03375845294260172 0.024112351359685716 -0.027667106355762545 -0.01836375618198343 0.068785658444762185 0.29547918671697859 0.011089439651153861 -0.034086036361752052 -0.023067972361150581 0.26515380654993537 0.14330855823852071 0.50606731149402551 -0.0341402446840956 0.11473182041518509 0.25484892297504946 -0.0013013612675499785 0.094655978090898069 0.0041109748345275017 0.21634838104426721 -0.010860112726637578 -0.034279785527483987 -0.0025356710245992512 0.031282967770339225 0.27204500199354192 -0.03421595199930804 0.20806550902907081
leaf_weight=0.50414547696709533 305.66143722552806 116.51535534486175 263.55651025101542 0.50634092371910699 0.95314621180295944 42.236505283974111 24.398343434557322 15.82243221066892 56.367852363735437 0.45522037334740062 75.205739345401525 0.73996590636670445 4.4739059563726187 0.99473446421325196 2.2192065827548508 0.55560123920440663 1.6257501915097217 7.6864744564518332 0.34631919302046199 6.0394109338521949 8.8876650705933553 41.870010150596499 1.9883758313953874 4.3255056533962488 2.1820117365568867 6.3935544379055482 3.7750275768339634 1.1415105424821379 1.0537936873734 1.0297214109450576
leaf_count=17 21313 7793 14941 23 55 1992 1396 531 1351 16 3217 28 214 14 58 24 57 224 14 190 242 1465 41 165 68 343 96 26 34 39
internal_value=-0.00063023 -0.00908042 0.000473867 0.00768286 0.240272 0.00664949 0.0250621 0.0368405 0.0439903 0.0102045 0.00901236 0.0186309 0.0817656 0.029359 0.163305 0.215944 0.0357875 0.0887414 -0.0237131 0.062003 0.025179 0.0151612 0.0830212 0.0281301 0.0692407 0.00122603 0.044097 0.0866892 0.151545 0.0855252
internal_weight=999.512 752.135 446.474 329.958 1.45949 328.499 247.376 137.987 122.165 109.389 108.934 84.1892 8.98341 5.46864 3.51477 2.77481 51.5487 9.31222 24.7447 62.4073 59.7577 48.688 6.81803 4.82965 11.0697 276.95 13.3936 7.00005 3.22503 2.08352
internal_count=55987 46936 25623 17830 78 17752 9051 4070 3539 4981 4965 3555 338 228 110 82 2273 281 1410 1541 1998 1688 223 182 310 15479 538 195 99 73
is_linear=0
shrinkage=0.05


Tree=16
num_leaves=31
num_cat=0
split_feature=11 10 6 8 6 10 6 11 6 10 8 6 11 6 5 9 11 6 8 1 9 9 9 11 8 8 6 6 8 10
split_gain=261.003 105.899 54.683 28.3195 27.1174 20.1781 18.1575 17.8754 23.2939 32.8818 17.0745 16.6866 28.6436 36.2544 57.987 28.2745 22.6615 20.7001 14.7873 14.5898 14.2597 13.0557 12.7021 12.1799 21.4451 18.0048 18.0136 16.8315 15.884 14.9894
threshold=2771.775000000001 0.67021079315916587 1.0555209790536786 0.0025538920531890958 1.0487038501621804 2.8560762813979168 1.0539789361760079 1399.1750000000004 1.1635236294426432 1.0299568593654833 0.0018286378813618959 1.098975361341394 5031.9750000000013 1.1006794312227004 0.17500000000000002 45.790558647302838 4497.6000000000013 1.130029293834679 0.0025263857899767306 1.0000000180025095e-35 72.117593309503363 66.907549138773803 60.604998915888423 7118.925000000002 0.0031566100962694128 0.002942541670517882 0.99784493358598647 0.97981502767299544 0.0017172433660857611 0.910072007737457
decision_type=2 2 2 2 2 2 2 2 2 2 2 2 2 2 2 2 2 2 2 2 2 2 2 2 2 2 2 2 2 2
left_child=4 6 23 5 19 -4 18 -6 22 -10 21 -5 13 14 15 -13 17 -15 -2 -1 -20 -8 -9 28 25 26 27 -25 -3 -26
right_child=1 2 3 11 7 -7 10 8 9 -11 -12 12 -14 16 -16 -17 -18 -19 20 -21 -22 -23 -24 24 29 -27 -28 -29 -30 -31
leaf_value=-0.03504268082437844 -0.1027851595982337 -0.089078444835789888 0.0022668676557411785 -0.022455091693781428 0.028097233438829413 -0.064102955983583856 -0.019427312937618017 0.01910617250313254 0.034225867114199476 -0.40414177450246902 0.023206913627079901 0.034282275608906149 0.0031425296299768613 0.016679102702727436 -0.5909816367160271 -0.35288384502253983 -0.20954790903286302 -0.18921323158189091 -0.00075265022005804795 0.006724216164030206 -0.11975666120962312 -0.23274936187795525 -0.00082170746155812643 -0.049606688983561069 -0.012806855477746865 -0.15248951623817103 -0.019024554898204482 -0.17960866666574551 -0.028708271642023987 -0.050723794321669839
leaf_weight=31.162375338375568 3.9658024944365016 11.428380221128462 218.58481717482209 136.09997045621276 462.97624694555998 12.085086915642021 16.80053344368935 396.68364552780986 0.92167219705879577 0.79829242825508118 174.32354583218694 1.2045651860535174 7.9416377060115328 5.6640314534306508 0.95907366275787342 0.77493606135249127 2.2460927255451679 1.5561629533767698 88.187622904777527 63.54367883130908 2.5912121534347525 0.74923268705606361 100.152688074857 5.1615993790328556 35.314233846962452 7.9309506528079501 10.755676947534083 4.8099866807460785 233.75306716188788 99.518397435545921
leaf_count=451 69 129 5612 3086 15326 195 496 12210 25 20 5288 30 169 136 20 20 38 17 2098 1650 51 21 3005 45 540 87 143 38 3940 1032
internal_value=0.0008262 -0.0164286 -0.0258144 -0.0123476 0.0185085 -0.00121033 0.00963102 0.0210228 0.0144532 -0.169235 0.0184744 -0.0287688 -0.0710021 -0.11847 -0.271888 -0.117286 -0.0708451 -0.0276967 -0.0082782 -0.00701889 -0.00414953 -0.0285344 0.0150891 -0.0385709 -0.0491415 -0.0884205 -0.0639055 -0.112316 -0.0315222 -0.0407929
internal_weight=2138.65 1082.41 795.789 387.116 1056.24 230.67 286.618 961.533 498.556 1.71996 191.873 156.446 20.3465 12.4049 2.93857 1.9795 9.46629 7.22019 94.7446 94.7061 90.7788 17.5498 496.836 408.672 163.491 28.6582 20.7273 9.97159 245.181 134.833
internal_count=55987 23300 15277 9323 32687 5807 8023 30586 15260 45 5805 3516 430 261 70 50 191 153 2218 2101 2149 517 15215 5954 1885 313 226 83 4069 1572
is_linear=0
shrinkage=0.05


Tree=17
num_leaves=31
num_cat=0
split_feature=6 7 7 5 8 6 8 7 10 10 6 6 7 6 8 9 6 6 8 10 10 9 8 6 10 6 10 10 10 6
split_gain=174.889 43.0484 33.8984 28.0089 20.1345 36.4147 51.0271 28.21 21.3312 18.8898 42.6732 24.6377 50.6179 54.5956 69.8651 27.1096 59.779 98.394 33.4157 23.8057 22.4343 17.9975 61.4258 136.895 17.446 16.8859 16.2512 19.0518 14.3894 13.5906
threshold=1.0565041243468916 0.0043641890839458608 0.0019937887194569725 0.12500000000000003 0.002209808881648386 1.0615175927219445 0.0014953615165081461 0.0021880192719256207 2.2392657525258688 2.4727732754987781 1.1276790364081724 1.0825563047108495 0.0021432947616130513 1.0715371500267608 0.001669573286787483 62.251146924819771 1.0805602861314627 1.0808427136839651 0.0012161475220093397 1.0800512509376532 1.143960893110884 48.010977700660703 0.0063785988037906487 1.0774839144642769 0.39881758555056523 1.0139593638487274 1.0299568593654833 1.6147324456542307 1.2132106054632523 1.0810622932820801
decision_type=2 2 2 2 2 2 2 2 2 2 2 2 2 2 2 2 2 2 2 2 2 2 2 2 2 2 2 2 2 2
left_child=1 25 -2 -4 5 6 -5 -8 -9 11 -11 12 13 -7 -15 -14 18 -18 20 -16 -17 22 29 -24 -3 26 -1 -28 -19 -6
right_child=2 24 3 4 21 9 7 8 -10 10 -12 -13 15 14 19 16 17 28 -20 -21 -22 -23 23 -25 -26 -27 27 -29 -30 -31
leaf_value=0.0035752612726908731 -0.025999551811182561 -0.019155748217912771 -0.017350999882104211 0.57369016058383104 -0.024740208315147786 -0.033970111990694198 0.37623085657765731 -0.0337996852630114 0.29875618383675312 0.063703371989259294 0.54546321460362956 -0.012014751052485255 -0.029548141865933276 0.061222853693320492 0.75615701665150237 0.59257785178021749 1.0135167144145185 -0.033815214378820305 -0.002320315542745924 0.30647050368475143 0.1177271621578149 -0.012086726514937574 1.0678739586399681 -0.033762481773668369 0.048161322132050759 -0.0017278373608869638 0.071231690988959137 0.0046913098132469579 0.35210645362148602 0.048915689057506484
leaf_weight=38.491388365626335 350.00222879461944 10.19532625004649 228.15457815863192 0.65841810032725234 11.019453817978507 1.3374772053211956 0.731198946014047 2.4831639789044861 0.59839958697557438 4.087772684171795 0.5178928393870591 39.051439806818962 11.825541812926533 1.0530334338545801 0.88555078022181966 0.39913939870893755 0.42960771359503169 0.63792658783495404 7.9397440999746323 0.44080656208097935 0.66009238362312317 112.8084671292454 0.45384601689875015 0.74476602301001549 171.95363201200962 114.75863326340914 30.073257496580482 16.748300878331065 0.38871507905423641 14.508249131962655
leaf_count=1490 21001 454 11818 32 552 60 31 124 12 142 26 2053 616 59 27 21 19 32 392 22 35 5720 22 40 4045 4992 804 580 20 746
internal_value=-0.000968474 0.0268073 -0.0143762 -0.00516825 0.00784092 0.0288997 0.16722 0.0970281 0.0307783 0.0200208 0.117876 0.0130924 0.0508063 0.221623 0.365295 0.0223107 0.0809663 0.378172 0.0328714 0.606707 0.29666 -0.00334628 0.0335461 0.383364 0.0443934 0.0107965 0.0276436 0.0474299 0.112305 0.0171209
internal_weight=1174.04 382.221 791.818 441.815 213.661 74.1259 4.47118 3.81276 3.08156 69.6547 4.60567 65.0491 25.9976 3.71687 2.37939 22.2808 10.4552 1.45625 8.99898 1.32636 1.05923 139.535 26.7263 1.19861 182.149 200.072 85.3129 46.8216 1.02664 25.5277
internal_count=55987 12365 43622 22621 10803 3723 199 167 136 3524 168 3356 1303 168 108 1135 519 71 448 49 56 7080 1360 62 4499 7866 2874 1384 52 1298
is_linear=0
shrinkage=0.05


Tree=18
num_leaves=31
num_cat=0
split_feature=11 10 8 11 7 5 6 8 11 6 9 9 7 11 10 6 6 8 7 8 6 9 8 6 6 9 8 9 5 11
split_gain=106.756 49.2738 18.3982 21.4 18.2766 17.2597 27.3314 16.3866 42.5364 15.811 25.2369 15.0693 27.6893 54.9611 24.1145 13.2271 48.6947 60.0439 11.3519 16.7918 16.0863 22.4881 18.6121 33.7663 89.285 45.9842 32.9991 41.8262 19.2479 16.0025
threshold=2771.775000000001 0.62096174920910419 0.0013502812357841143 3136.0750000000012 0.0018522677743610214 -1.0000000180025095e-35 1.130029293834679 0.00099467726353313045 2896.8750000000005 1.1635236294426432 30.911843352723285 27.659368469373288 0.0031333188675585389 3223.9750000000008 1.970725987693257 1.0682975764983993 1.0668095396166606 0.0023236921466048542 0.0051958119628293187 0.0037564850819771498 1.0531499065222116 49.458667529896154 0.00253926156723515 1.0833073266826021 1.083883894801384 69.045883778314177 0.0026998091080897451 48.956594408346753 0.32500000000000001 7372.0750000000007
decision_type=2 2 2 2 2 2 2 2 2 2 2 2 2 2 2 2 2 2 2 2 2 2 2 2 2 2 2 2 2 2
left_child=4 2 3 -2 -1 11 7 8 -7 -6 -11 12 13 -3 -14 16 -13 -18 19 20 21 -9 -22 26 -25 -26 27 28 -24 -23
right_child=1 5 -4 -5 9 6 -8 18 -10 10 -12 15 14 -15 -16 -17 17 -19 -20 -21 22 29 23 24 25 -27 -28 -29 -30 -31
leaf_value=-0.027038768628878967 0.39576215313646229 0.79817151966087496 -0.017141453444741436 0.015417986436316172 -0.0089155712127295238 0.44189157554645092 0.27679249132769373 0.0051931179443122826 -0.034276946740850606 0.27038168292536841 -0.033768542660363353 0.0096791932472787626 0.00036887480714317656 0.037900803661505861 0.12146675043782712 -0.016763278620180424 -0.0337401483164608 0.54765065884815189 0.045021368605650092 -0.0019581928022795038 0.0019896493261017402 0.058234617197977512 0.15268129265927363 0.7773202125437112 0.058414603197234197 0.44532085752078876 -0.026774188634916402 -0.0095866315768697776 0.49385620940714398 0.14026496647378237
leaf_weight=249.91102514509112 0.58123631402850051 0.36061327718198544 108.55023471266031 1.0167901106178758 225.44896175898612 0.83878284320235152 1.1213750094175328 16.326342528685927 1.063873518258333 1.3104007383808487 1.4222790626808999 66.236853117123246 14.528538264334204 0.69752298295497894 5.7332670129835597 52.63216077722609 0.83767934143543132 0.94516664184629917 73.922285716980696 53.067426681518555 58.709623457863927 26.783164823427796 0.80444436334074187 0.49303445592522521 9.7317447401583159 0.83375067077577192 14.025822360068558 2.0590276755392551 0.85042508505284786 7.6416746303439131
leaf_count=18609 24 20 6962 62 13969 16 19 504 40 25 84 2399 600 36 139 2683 47 36 2130 2194 3197 715 42 23 447 33 672 101 21 138
internal_value=-0.000640313 0.0150303 -0.0146621 0.153757 -0.0176974 0.0230025 0.0304632 0.0294292 0.175641 -0.00746653 0.11208 0.00890471 0.0476562 0.297001 0.0346346 0.00205707 0.0166198 0.274481 0.0283804 0.0219509 0.0311279 0.0535229 0.0181396 0.0510639 0.119637 0.0889464 0.00831705 0.140842 0.328009 0.0764438
internal_weight=998.486 520.393 110.148 1.59803 478.093 410.245 268.273 267.151 1.90266 228.182 2.73268 141.972 21.3199 1.05814 20.2618 120.652 68.0197 1.78285 265.249 191.326 138.259 50.7512 87.5079 28.7982 11.0585 10.5655 17.7397 3.7139 1.65487 34.4248
internal_count=55987 23300 7048 86 32687 16252 10292 10273 56 14078 109 5960 795 56 739 5165 2482 83 10217 8087 5893 1357 4536 1339 503 480 836 164 63 853
is_linear=0
shrinkage=0.05


Tree=19
num_leaves=31
num_cat=0
split_feature=11 10 7 8 10 7 5 9 11 5 10 11 10 7 5 11 9 9 8 9 8 11 5 9 8 10 7 7 8 7
split_gain=233.828 91.3863 52.3271 27.6907 32.665 31.9876 39.8961 65.9332 17.5955 14.7023 13.4093 13.3303 13.2396 12.4048 11.4307 10.9607 10.7193 13.4177 12.5635 11.2372 10.5969 10.6027 23.3019 32.2161 20.3001 19.267 13.0936 24.9128 13.0365 11.4205
threshold=2771.775000000001 0.5507103415049921 0.0024360224763387652 0.0022204751032307529 0.910072007737457 0.0012748904415994489 0.17500000000000002 51.481985741045513 7118.925000000002 0.17500000000000002 3.109021923060848 3082.1500000000005 0.57329690213087858 0.0055815303624569502 0.22500000000000003 1643.5750000000005 37.304449878090985 37.692670249982605 0.0071340667902873595 72.870637253990523 0.0069462318425837508 3394.4750000000008 0.37500000000000006 53.018728675415751 0.0026998091080897451 1.5463400567230312 0.0035704020266742399 0.0044100583511957683 0.0029718833534235945 0.0033933074360512501
decision_type=2 2 2 2 2 2 2 2 2 2 2 2 2 2 2 2 2 2 2 2 2 2 2 2 2 2 2 2 2 2
left_child=2 -2 15 5 -5 6 -3 -8 10 -7 16 -9 -4 -14 -12 -1 18 -18 -6 20 21 22 23 24 25 29 -26 -28 -23 -19
right_child=1 3 12 4 8 9 7 11 -10 -11 14 -13 13 -15 -16 -17 17 19 -20 -21 -22 28 -24 -25 26 -27 27 -29 -30 -31
leaf_value=0.030360470421959586 0.016375383927985498 0.0036894398800810337 0.020988724250692176 -0.011537406091268139 -0.0013383221485898805 0.010505256838428069 -0.4574335868150452 -0.17485944096256828 -0.048437487631256874 -0.015531530932918265 -0.12755559111570119 0.034331213869897702 0.0004664033299194739 -0.032531311396922308 -0.027807925079194384 0.017268244634759511 -0.14577444593620134 -0.29844858652354928 -0.12294769775468264 0.014023998766213392 0.016387771901195097 -0.012247635456303387 -0.003565209299087645 -0.013872334425576151 -0.04021153838932473 -0.073850065452898114 -0.30731610539605114 -0.068155191214674768 -0.040780309786088709 -0.10874619797879362
leaf_weight=453.39231514371932 191.10320997610688 4.9204127825796586 68.702691009268165 236.51494104228914 55.0058229342103 108.50325394980609 1.6261279061436651 1.4295707270503046 150.41362069919705 108.37232463620603 6.0795175731182081 1.6296945400536058 224.52970104850829 32.619143459945917 5.4441650323569775 246.93026872910559 2.4832684062421313 3.3026845864951673 2.2091114297509185 14.290052272379397 10.867284934967754 70.987665262073278 14.444030206650494 11.294568989425896 7.3610682785510999 2.2969566844403744 1.6057060807943342 3.3830567896366119 91.805666297674179 1.0442181788384912
leaf_count=15800 5681 138 2170 5004 1007 2744 39 26 1636 2561 61 41 6128 692 56 7897 42 70 35 254 203 1349 331 224 169 43 25 57 1485 19
internal_value=0.000843611 -0.0150792 0.0180426 -0.0216321 -0.0266061 -0.00645991 -0.0957459 -0.200169 -0.0344508 -0.00250528 -0.0275282 -0.0634219 0.00149013 -0.00371933 -0.0804315 0.0257442 -0.0254431 -0.0301654 -0.00603375 -0.0289315 -0.0317422 -0.0342626 -0.0558227 -0.0807435 -0.120508 -0.190983 -0.0825948 -0.145133 -0.0283384 -0.252878
internal_weight=2134.59 1108.42 1026.17 917.315 690.833 226.481 9.60581 4.68539 454.318 216.876 303.905 3.05927 325.852 257.149 11.5237 700.323 292.381 235.166 57.2149 232.683 218.393 207.526 44.7323 30.2883 18.9937 6.64386 12.3498 4.98876 162.793 4.3469
internal_count=55987 23300 32687 17619 12070 5549 244 106 7066 5305 5430 67 8990 6820 117 23697 5313 4271 1042 4229 3975 3772 938 607 383 132 251 82 2834 89
is_linear=0
shrinkage=0.05


Tree=20
num_leaves=31
num_cat=0
split_feature=6 7 11 5 10 11 6 7 11 5 7 10 6 6 8 11 11 7 10 8 11 5 9 11 7 7 7 6 8 7
split_gain=152.597 37.3576 36.0131 20.7845 18.7121 22.125 77.6993 18.9321 18.2494 17.2227 18.5271 16.6207 15.8922 16.9531 28.4063 27.4214 29.7034 24.3857 24.1361 18.3964 30.6697 13.8937 14.6801 42.7343 40.7242 22.8644 35.6966 35.7362 95.6271 13.8165
threshold=1.0632302478258071 0.0039677558477926901 2399.0750000000012 0.17500000000000002 0.79871975070051027 821.07500000000016 1.0617317815014846 0.0025019521127335157 5666.5749999999998 0.12500000000000003 0.0028790776704689918 0.50417669757226435 1.0139593638487274 1.0024583435019452 0.0042656909768470537 4156.9750000000013 4497.6000000000013 0.0025696324997255119 1.3980963330163487 0.0037564850819771498 1872.2250000000006 0.075000000000000011 48.010977700660703 10046.500000000002 0.0010496794182628096 0.0037180541152932781 0.0052695162369404318 1.0881890710593887 0.0026080399321615692 0.0019520923833188507
decision_type=2 2 2 2 2 2 2 2 2 2 2 2 2 2 2 2 2 2 2 2 2 2 2 2 2 2 2 2 2 2
left_child=1 3 -2 8 -5 6 7 -6 -1 -10 -11 -4 13 15 19 -7 18 -18 -17 20 -15 -13 23 24 -23 -26 27 -27 -29 -14
right_child=2 -3 11 4 5 12 -8 -9 9 10 -12 21 29 14 -16 16 17 -19 -20 -21 -22 22 -24 -25 25 26 -28 28 -30 -31
leaf_value=-0.018388817490930454 -0.025463811636511732 0.035256408689422147 -0.026846352699634868 -0.0077501073488665077 -0.033754926274030587 -0.022880669230940523 0.80386685960501902 0.29575704520805485 0.018594772816572413 0.33060017615942339 0.018585984813239264 -0.0092411332361666525 -0.026970532210317383 0.38134282254235835 -0.034113512578161552 0.42735437485779126 0.14944961751281979 0.0053958998925283334 0.042482004988472072 0.44704368272142397 -0.034189191230194392 0.43181837939567863 0.0057217902253323925 0.53827173241865134 0.0041206499783457166 0.10468325114658945 -0.034053522630614549 -0.033826639559625421 0.88598509088564892 0.031238451320253727
leaf_weight=90.436863741837442 400.41075946111232 236.0723214186728 58.063187902793288 36.285933900624514 1.5496765756979582 9.010172409936791 0.41788457054644812 0.60651731677353371 20.740378394722942 0.9586859568953503 0.94451149739325047 122.1044789198786 14.617528118193148 0.84167276695370652 1.2893190570175646 1.0823423881083716 4.8169710524380189 7.5307515189051628 0.6531933695077895 0.83056927099823941 0.93998999521136284 0.64438525773585453 102.27593961544335 0.436298543587326 19.774080367758874 2.1634433865547176 2.2625004108995199 0.53582145832478978 0.59784466400742531 33.689816750586033
leaf_count=4288 24776 5935 3413 1728 86 347 27 23 681 21 25 6050 767 20 43 28 75 177 21 19 27 36 4816 10 994 87 85 25 23 1334
internal_value=-0.000990482 0.0213266 -0.0155687 0.00685563 0.0219053 0.035723 0.179869 0.0589337 -0.00833803 0.0318041 0.175755 -0.0027404 0.0307957 0.0615229 0.157923 0.0452364 0.0888163 0.0615927 0.282502 0.252707 0.162112 0.00284053 0.0143039 0.0475337 0.0392918 0.0293076 0.118891 0.223842 0.451241 0.0136247
internal_weight=1172.58 463.315 709.269 227.243 114.162 77.8764 2.57408 2.15619 113.08 22.6436 1.9032 308.858 75.3023 26.995 3.90155 23.0934 14.0833 12.3477 1.73554 2.61223 1.78166 250.795 128.69 26.4144 25.9781 25.3337 5.55961 3.29711 1.13367 48.3073
internal_count=55987 15672 40315 9737 4722 2994 136 109 5015 727 46 15539 2858 757 109 648 301 252 49 66 47 12126 6076 1260 1250 1214 220 135 48 2101
is_linear=0
shrinkage=0.05


Tree=21
num_leaves=31
num_cat=0
split_feature=11 10 5 6 9 10 8 6 6 11 11 8 8 6 6 6 6 8 5 11 9 10 11 5 6 6 8 11 6 11
split_gain=93.3276 41.5707 14.9918 16.1236 12.5423 14.5031 11.9361 30.6141 69.0849 52.7067 104.177 11.6566 14.8225 14.6231 20.5848 14.0437 153.786 23.5715 22.4495 30.0592 29.425 23.8153 19.0937 17.4888 15.0946 20.7922 22.4268 17.4076 19.6673 17.2933
threshold=2771.775000000001 0.58920018408258912 -1.0000000180025095e-35 1.130029293834679 27.659368469373288 1.970725987693257 0.0013643211428553393 1.0885804929301146 1.0771500822067472 3339.3000000000006 2973.6250000000005 0.0021616856650564253 0.0037564850819771498 1.0536815341656902 1.0430597351780426 1.0921473055386286 1.0923842419546033 0.0028414206306941665 0.17500000000000002 4014.525000000001 63.46806947698294 1.266463081513389 5367.1000000000013 1.0000000180025095e-35 1.0199618459177822 1.0045541303793113 0.0025823132500430875 7501.2250000000013 1.0525455201209244 5741.1500000000005
decision_type=2 2 2 2 2 2 2 2 2 2 2 2 2 2 2 2 2 2 2 2 2 2 2 2 2 2 2 2 2 2
left_child=-1 -2 4 6 5 -3 7 8 -4 10 -10 13 15 14 -8 24 -17 23 -19 -20 21 22 -21 -18 25 -13 -27 -26 -29 -28
right_child=1 2 3 -5 -6 -7 11 -9 9 -11 -12 12 -14 -15 -16 16 17 18 19 20 -22 -23 -24 -25 27 26 29 28 -30 -31
leaf_value=-0.0171293968019804 -0.016135426683993703 0.015176302509441603 -0.0068584629385340908 0.18650461332652857 0.0009571097925399224 0.10161536390028979 0.020666224306685393 -0.033757299677635355 0.22793858876950723 -0.033779327798529567 0.97412226677773239 0.03825189985305754 0.014231693316477462 -0.011222165738633659 0.20911068752046505 0.85765103507534557 0.21025593047960223 -0.013518201610133472 -0.0045009360825594069 0.36519157486089282 0.016905203834604393 0.55707510712020059 0.035503306605470325 -0.033844366959024659 0.0086113021202543476 0.22902699484982358 -0.018181929877299611 0.15438339829749329 0.0090645046789394248 0.14682896858911493
leaf_weight=461.88572362717241 96.703172883950174 16.248931590467695 3.6376966517418605 1.5698691885918368 125.77769947238266 6.9189831484109154 6.9165981914848071 3.9159684479236603 1.7028123028576381 0.81499835290014733 0.64491620659828175 34.612926099449396 101.01173393148929 39.919023928232491 1.8332846257835624 0.61690302379429596 0.81942499522119572 2.3604891849681735 1.6650534207001326 1.1246598809957511 0.97865709848701943 0.84414686635136593 0.72050663456320752 7.0202539460733533 58.434365035966039 3.2190048918127996 3.0738981496542692 4.6882293708622438 4.6254123402759433 3.2842264510691166
leaf_count=32687 6426 669 151 19 5338 154 121 217 35 44 35 722 3555 2176 34 26 40 100 64 27 37 21 34 332 2450 72 95 79 179 48
internal_value=-0.000659376 0.0135411 0.0200783 0.0266995 0.00718421 0.0409909 0.0258299 0.0776094 0.141739 0.312652 0.432914 0.0238322 0.0285532 0.00160927 0.0601493 0.0398472 0.0834342 0.0526861 0.114862 0.171685 0.251663 0.337093 0.236454 -0.00833033 0.0335586 0.0562927 0.121495 0.0187298 0.082214 0.0670528
internal_weight=997.59 535.704 439.001 290.055 148.946 23.1679 288.485 10.7164 6.80042 3.16273 2.34773 277.769 229.1 48.6689 8.74988 128.088 16.1501 15.5332 7.69351 5.33302 3.66797 2.68931 1.84517 7.83968 111.938 44.1901 9.57713 67.748 9.31364 6.35812
internal_count=55987 23300 16874 10713 6161 823 10694 482 265 114 70 10212 7881 2331 155 4326 681 655 283 183 119 82 61 372 3645 937 215 2708 258 143
is_linear=0
shrinkage=0.05


Tree=22
num_leaves=31
num_cat=0
split_feature=11 10 6 6 10 11 11 6 6 8 6 6 5 8 9 6 6 11 8 5 5 9 8 6 6 11 6 9 8 11
split_gain=205.308 77.8173 43.6253 24.1202 22.043 17.8071 13.8359 32.6674 55.3383 18.2005 21.8897 41.9378 53.5 14.9536 17.3452 20.0096 39.0318 15.0421 13.6084 17.8993 12.533 15.2338 15.695 13.6259 13.4721 13.8796 12.4525 12.9385 12.1567 20.0575
threshold=2771.775000000001 0.5507103415049921 1.0555209790536786 1.0487038501621804 2.5322590746212144 1399.1750000000004 3339.3000000000006 1.0771500822067472 1.0774839144642769 0.00099467726353313045 1.0950911041100546 1.0958700143376703 -0.074999999999999983 0.0038356875949421159 62.042148056231717 1.1029406548066347 1.098975361341394 2873.2500000000014 0.0020250765787239756 0.37500000000000006 0.32500000000000001 50.285085547843501 0.001693738626664363 1.0715371500267608 1.0576905851181897 4408.7250000000004 1.1635236294426432 36.008180810718947 0.0055053574099877475 13286.950000000004
decision_type=2 2 2 2 2 2 2 2 2 2 2 2 2 2 2 2 2 2 2 2 2 2 2 2 2 2 2 2 2 2
left_child=3 -2 28 -1 6 -5 7 -4 -9 -10 18 12 -12 14 -13 16 -16 -15 -11 -20 -8 22 -22 24 -24 -26 -7 -28 29 -3
right_child=1 2 4 5 -6 26 20 8 9 10 11 13 -14 17 15 -17 -18 -19 19 -21 21 -23 23 -25 25 -27 27 -29 -30 -31
leaf_value=-0.0063366532844806077 0.015907574255136777 -0.031764856425967568 0.01577142992074906 0.027481459948755033 -0.049463081968629981 0.013981241477515768 0.0051125118816424979 -0.40901649009721164 -0.18412252866823009 0.012980037790178318 -0.58090307484076886 0.0080557674057115131 -0.025192686879602685 -0.25985031570980993 -0.015360468517208513 0.034814207950980385 -0.46964942863461129 -0.066271763694522492 -0.071974182915011869 0.034253772309013962 -0.20800426218199997 -0.0068857703023319297 0.034280287789900936 -0.0062491964689007353 -0.049560480880766332 -0.23772504319784088 -0.18667492512833969 0.034268338503954748 -0.013290987176255166 -0.10472589680921629
leaf_weight=96.019561864435673 186.37406957149506 391.06813361681998 37.509492104873061 423.2945223916322 30.44375416263938 470.31373121403158 248.03245744295418 1.0153369084000576 2.0353204756975165 23.575399747118354 0.89381520636379719 9.452434819191696 0.84027208015322929 1.5182071570307005 1.0058591812849038 1.15814908221364 0.89221869409084309 2.9602996073663235 14.576175892725589 5.4475082028657189 1.6500469632446755 62.904471622779965 1.2533320821821679 8.6179789248853904 1.769511776044965 2.1966125145554543 1.5693189948797219 1.1468630563467739 91.139769684523344 9.6521472856402379
leaf_count=2101 5681 5221 943 15326 411 15215 6169 28 24 650 20 227 21 18 24 25 18 60 350 141 39 1456 32 206 37 36 14 31 1415 48
internal_value=0.00085791 -0.0136369 -0.0194233 0.0174801 -0.00835015 0.0200314 -0.00543466 -0.0214234 -0.0427656 -0.0369873 -0.032182 -0.0774036 -0.311627 -0.0534936 -0.0254235 -0.12897 -0.228906 -0.131895 -0.0127641 -0.0430745 -0.000395412 -0.0178225 -0.0622435 -0.0448623 -0.108617 -0.153774 0.0133647 -0.0933853 -0.0297735 -0.0335223
internal_weight=2130.33 1137.98 951.609 992.344 459.749 896.324 429.305 102.88 65.371 64.3557 62.3203 18.7213 1.73409 16.9872 12.5087 3.05623 1.89808 4.47851 43.5991 20.0237 326.424 78.392 15.4875 13.8374 5.21946 3.96612 473.03 2.71618 491.86 400.72
internal_count=55987 23300 17619 32687 10935 30586 10524 2549 1606 1578 1554 413 41 372 294 67 42 78 1141 491 7975 1806 350 311 105 73 15260 45 6684 5269
is_linear=0
shrinkage=0.05


Tree=23
num_leaves=31
num_cat=0
split_feature=11 10 7 7 9 11 5 7 8 5 8 7 11 11 9 10 10 8 11 5 8 8 9 7 8 9 8 11 8 8
split_gain=110.94 39.9713 35.1001 27.9508 22.7392 18.4713 27.7306 34.0367 15.2366 11.7701 32.0838 31.6617 50.3266 16.5137 26.9389 15.3115 10.8559 15.958 15.0052 26.8481 15.7426 15.4191 14.0239 16.7891 24.5127 27.3864 26.177 22.1216 15.3012 15.1944
threshold=2441.1750000000006 0.49843303407537548 0.003338177290075055 0.0024360224763387652 32.342513822501978 4088.2250000000004 0.12500000000000003 0.0026050068005364258 0.0016120385854253012 0.12500000000000003 0.0014953615165081461 0.0026050068005364258 1904.9250000000004 1960.6250000000002 68.666050447492211 2.8560762813979168 0.78283722318975268 0.0069462318425837508 11686.1 0.32500000000000001 0.0046673345464254687 0.0014678497342437398 70.940589859294775 0.0073884052130137904 0.0063785988037906487 60.604998915888423 0.0029563711210830543 10046.500000000002 0.0056719416985027199 0.0028556705147397914
decision_type=2 2 2 2 2 2 2 2 2 2 2 2 2 2 2 2 2 2 2 2 2 2 2 2 2 2 2 2 2 2
left_child=3 -2 5 -1 -4 -3 -7 8 -8 -5 11 12 -11 -13 -15 -12 18 22 21 20 -20 -6 23 28 26 27 -25 -26 29 -18
right_child=1 2 4 9 16 6 7 -9 -10 10 15 13 -14 14 -16 -17 17 -19 19 -21 -22 -23 -24 24 25 -27 -28 -29 -30 -31
leaf_value=-0.027526779402546771 -0.018447684072509265 -0.0096185172712741109 -0.0068670220403471835 -0.015261927288907313 0.29887473196628983 -0.012480850243889879 -0.033832964670423245 -0.0057997442062393432 0.087549978473241696 0.65497949258810784 -0.00018893042868340068 -0.03375664630662651 -0.033905028736957069 0.4378160358358863 0.018092560709420519 0.12640078931216697 0.017962793216539704 -0.018674256065623566 0.20440272851832064 0.30518784939791616 -0.018818216176204539 0.0053825309756894485 0.0059501019786623172 0.21442494762716577 0.14162603989198377 -0.034430903131197774 0.050298845547656637 0.45479490742244394 -0.02847118496658671 0.051225128261218278
leaf_weight=333.00033880118281 94.627446790225804 144.53596835490316 45.293007789179683 72.708152843639255 0.45056792348623176 39.621771847829223 2.8468202371150282 21.214758314192295 28.143463434651494 0.65332303848117479 63.772698266431689 1.8618662916123869 0.44618477858603001 0.63589001726359107 0.95857524871826172 2.4816450811922541 52.702371494844556 12.660366263240574 1.0440091118216503 1.1761449463665483 3.2445285860449076 66.037728413939476 28.269610948860645 2.5890548992902032 1.1344541702419517 0.85918868519365776 39.405454140156507 1.1212143246084449 8.7234741542488319 98.507142456248403
leaf_count=21887 5276 7167 1533 3907 19 1728 136 785 867 34 3262 105 21 26 39 78 1864 342 23 29 96 2769 787 52 28 23 592 15 273 2224
internal_value=-0.000999244 0.0117529 0.0165192 -0.0195769 0.0262782 0.00152252 0.0190586 0.0429959 0.0763995 -0.00113123 0.0133782 0.141726 0.375427 0.0673823 0.185483 0.00455266 0.0310002 0.0359974 0.0139174 0.0935621 0.0355231 0.00737142 0.038964 0.0435157 0.0704558 0.205791 0.0604176 0.297291 0.0359173 0.0396319
internal_weight=1170.73 694.209 599.581 476.519 363.218 236.363 91.8268 52.205 30.9903 143.518 70.8102 4.55584 1.09951 3.45633 1.59447 66.2543 317.925 245.972 71.953 5.46468 4.28854 66.4883 233.312 205.042 45.1094 3.11486 41.9945 2.25567 159.933 151.21
internal_count=55987 26628 21352 29359 10669 10683 3516 1788 1003 7472 3565 225 55 170 65 3340 9136 6200 2936 148 119 2788 5858 5071 710 66 644 43 4361 4088
is_linear=0
shrinkage=0.05


Tree=24
num_leaves=31
num_cat=0
split_feature=11 10 7 6 10 8 11 6 6 6 11 11 6 6 4 7 8 6 10 10 6 8 6 8 6 11 6 8 7 11
split_gain=81.6464 35.2227 18.1637 12.2424 13.7981 10.4742 19.3601 22.5873 18.6738 52.302 16.4676 15.287 16.366 68.6591 21.7343 32.3921 26.6221 25.3849 14.3632 10.7903 9.96838 9.91309 9.43759 9.20105 8.61764 10.906 10.5926 9.65562 17.927 12.948
threshold=2771.775000000001 0.58920018408258912 0.0018522677743610214 1.1635236294426432 1.0299568593654833 0.002209808881648386 3895.7250000000004 1.0536815341656902 1.0771500822067472 1.0774839144642769 3483.4250000000006 3223.9750000000008 1.0850270087534588 1.0856102882388541 -1.0000000180025095e-35 0.0040452198604667726 0.00099467726353313045 1.0950911041100546 1.0543771141916614 2.8560762813979168 1.1304221583182328 0.0021033049346202864 1.0430597351780426 0.00099467726353313045 1.0994716444197699 5296.4250000000002 1.108984794009652 0.0030438798176070942 0.003338177290075055 4497.6000000000013
decision_type=2 2 2 2 2 2 2 2 2 2 2 2 2 2 2 2 2 2 2 2 2 2 2 2 2 2 2 2 2 2
left_child=2 23 -1 21 -5 6 7 10 -9 -10 22 12 -11 -14 17 16 -16 -15 24 -13 -20 -4 -3 -2 -7 26 27 -26 -29 -30
right_child=1 5 3 4 -6 18 -8 8 9 11 -12 19 13 14 15 -17 -18 -19 20 -21 -22 -23 -24 -25 25 -27 -28 28 29 -31
leaf_value=-0.026401722739491731 0.23130710442783081 -0.020772671003042826 -0.024690044617283548 -0.034071427408139586 0.17816856813441118 0.0083870815344102134 -0.020608631645381164 -0.031166647202963072 0.36567332279794651 -0.033959103875653061 0.16243568576527462 -0.017806944774828051 0.58331977857012385 0.031659631083073375 0.1928816600640203 0.47684307729962899 -0.022198245431554981 0.44461068648544561 0.030833819266606777 0.18377101409013752 0.1782684228812782 -0.00089170592704477896 0.11006532559262261 -0.016626195243163892 0.033401545474812534 -0.033827934445076001 0.0065590871576430843 -0.033772160859868047 0.1419737949063325 0.38430958609177662
leaf_weight=228.73792182095349 0.37570386566221614 3.2931014839559776 61.185984283685684 1.2959335055202239 1.8719351915642617 149.89678834564984 45.150610660202801 18.830756143666804 1.1246533691883076 4.0111938137561109 4.4604564886540174 18.814876460470263 0.64784791134297748 0.75875380262732395 1.725669151172039 0.39153867401182729 8.6529723824933154 0.73038531839847565 183.94198723882437 0.68816029094159503 1.1536682471632946 153.62307005375624 2.3703225459903479 93.706100659444928 1.48513980489224 2.377797108143568 2.4154690708965063 0.68202747590839896 1.1363380625844004 1.0704182647168634
leaf_count=18609 7 66 4246 66 43 5660 2272 1015 33 194 54 1055 24 28 16 18 487 18 5503 22 8 9723 40 6419 66 119 76 36 48 16
internal_value=-0.000681352 0.0122175 -0.0165595 -0.00623142 0.091344 0.0179667 0.00465949 0.0218153 0.00946682 0.029846 0.09058 0.0194761 0.0542556 0.0816704 0.0551605 0.0304054 0.0135633 0.234202 0.0222838 -0.0106943 0.0317528 -0.0076704 0.0339872 -0.0156361 0.0112651 0.0583256 0.0905998 0.137011 0.190277 0.259522
internal_weight=996.608 549.893 446.715 217.977 3.16787 455.811 111.651 66.5007 56.3768 37.5461 10.1239 36.4214 16.9184 12.9072 12.2593 10.7702 10.3786 1.48914 344.16 19.503 185.096 214.809 5.66342 94.0818 159.064 9.16719 6.78939 4.37392 2.88878 2.20676
internal_count=55987 23300 32687 14078 109 16874 5342 3070 2910 1895 160 1862 785 591 567 521 503 46 11532 1077 5511 13969 106 6426 6021 361 242 166 100 64
is_linear=0
shrinkage=0.05


Tree=25
num_leaves=31
num_cat=0
split_feature=11 10 7 6 10 6 7 6 8 6 5 8 10 11 8 11 6 6 7 11 6 5 7 6 7 7 5 6 6 11
split_gain=180.185 65.7718 50.4229 36.6861 18.9569 18.5791 13.6032 28.6478 24.3421 27.5501 21.2187 15.9828 13.1364 11.3661 11.2228 10.5897 9.8522 9.80289 11.3924 12.215 11.5809 37.4715 11.2332 10.0055 9.49899 29.6825 22.2432 32.0839 40.9919 29.6401
threshold=2771.775000000001 0.5507103415049921 0.0024360224763387652 1.0555209790536786 2.5322590746212144 1.0468427688756254 0.0012748904415994489 1.0881890710593887 0.001693738626664363 1.0936774918975087 0.17500000000000002 0.0024985154475380502 0.67021079315916587 1643.5750000000005 0.0016582847427648545 3136.0750000000012 1.0045541303793113 0.9920304786166757 0.0029013130934834185 6075.4250000000002 1.0551677670233013 -1.0000000180025095e-35 0.0022026323197117631 1.0217115791444009 0.0021721556138542676 0.0019796924369432415 -1.0000000180025095e-35 1.0856102882388541 1.073000616216363 3339.3000000000006
decision_type=2 2 2 2 2 2 2 2 2 2 2 2 2 2 2 2 2 2 2 2 2 2 2 2 2 2 2 2 2 2
left_child=2 -2 13 14 6 16 7 -5 9 10 -9 24 -13 -1 15 -3 -4 -16 19 -19 -20 -22 23 -21 25 -8 -27 28 -28 -30
right_child=1 3 5 4 -6 -7 11 8 -10 -11 -12 12 -14 -15 17 -17 -18 18 20 22 21 -23 -24 -25 -26 26 27 -29 29 -31
leaf_value=0.029930389041903316 0.015344376030403117 0.016554435471305591 0.016177725658225967 0.03457574574989454 -0.044310517632867696 0.0059822816346605263 0.014082527376571308 0.034156508956262606 0.034263977656744209 -0.38484258645441294 -0.19642315431410742 0.015085000802728794 -0.018971479569613432 0.016076903903593547 -0.035670517876909995 -0.099465243803391709 -0.037509856103853496 0.0084447943175454468 -0.024123517486268783 -0.16643936533524026 -0.34281999227934457 0.010370537580380455 -0.00081110911098801518 -0.039692824170689339 0.012435951297739962 0.012364318556617028 -0.048825886924423703 0.0034046005568924547 -0.46984664276225496 -0.17989031891562601
leaf_weight=411.75501867756248 181.01442838646472 2.4949127212166777 10.736334808170794 5.1787325851619226 32.307100411504507 264.40664126351476 39.802575388923287 1.5594560019671915 1.9312945641577242 1.1918260753154752 2.7699328996241093 34.027927944436669 168.65554602071643 231.18842515349388 162.03528510779142 9.2917358838021737 41.872184596955776 53.486555324867368 270.26136035099626 2.6818451695144159 1.1868385449051859 2.0448469035327426 6.883871391415596 3.7125179953873158 162.37583039887249 6.8573171850293901 4.1930337399244291 4.8460121154785147 1.2881359644234178 2.7910267747938633
leaf_count=15800 5681 34 207 124 411 8057 1124 45 51 24 31 967 3540 7897 1706 70 726 1070 3579 21 19 41 114 30 4143 188 91 119 25 52
internal_value=0.000863305 -0.0123544 0.0169024 -0.0174505 -0.00735043 0.000583016 -0.00462093 -0.0557543 -0.118525 -0.171969 -0.113368 -0.00310063 -0.0132538 0.024949 -0.0266802 -0.074907 -0.0265533 -0.0255485 -0.0207282 -0.00221113 -0.0252486 -0.119339 -0.0451347 -0.0928513 0.00616271 -0.0108774 -0.0606116 -0.0987585 -0.158608 -0.271454
internal_weight=2124.83 1164.87 959.959 983.856 469.776 317.015 437.469 12.6312 7.45251 5.52121 4.32939 424.837 202.683 642.943 514.08 11.7866 52.6085 502.293 340.258 66.7648 273.493 3.23169 13.2782 6.39436 222.154 59.7781 19.9755 13.1182 8.2722 4.07916
internal_count=55987 23300 32687 17619 10935 8990 10524 275 151 100 76 10249 4507 23697 6684 104 933 6580 4874 1235 3639 60 165 51 5742 1599 475 287 168 77
is_linear=0
shrinkage=0.05


Tree=26
num_leaves=31
num_cat=0
split_feature=6 11 7 5 10 11 10 11 6 11 7 8 6 5 7 6 6 7 8 6 11 6 6 7 9 8 11 11 11 6
split_gain=123.094 31.8399 25.7949 18.0388 15.8863 15.2657 14.4888 16.7488 64.661 18.0205 12.3535 12.9699 72.838 11.8541 16.8731 12.5713 25.5404 20.5842 33.5174 28.1905 11.6708 11.3104 48.7406 50.7114 49.6446 16.1323 18.3403 46.3637 11.442 11.0807
threshold=1.0632302478258071 1692.8500000000001 0.0039677558477926901 0.17500000000000002 0.46862759790405578 5666.5749999999998 0.79871975070051027 821.07500000000016 1.0619967783083133 769.2750000000002 0.0016787682592221151 0.0015477344038004497 1.0605299989278325 0.17500000000000002 0.0019377354970262206 1.1006794312227004 1.098975361341394 0.0038908884640629872 0.0032395997096832082 1.0999042435119295 4156.9750000000013 1.0742865006757685 1.0757637143996994 0.0025696324997255119 54.370173425875898 0.0016459820232500493 2873.2500000000014 2612.3750000000014 7840.9749999999995 1.0884085036165476
decision_type=2 2 2 2 2 2 2 2 2 2 2 2 2 2 2 2 2 2 2 2 2 2 2 2 2 2 2 2 2 2
left_child=2 -2 3 5 -3 -1 -5 8 9 -8 20 12 -12 -6 -15 16 21 -18 19 -19 -9 25 23 24 -23 26 27 -16 -25 -24
right_child=1 4 -4 6 13 -7 7 10 -10 -11 11 -13 -14 14 15 -17 17 18 -20 -21 -22 22 29 28 -26 -27 -28 -29 -30 -31
leaf_value=-0.017996056534793966 -0.028613070877989383 -0.029068579936460698 0.029033578834590047 -0.0071350394229981063 -0.011219586123133243 0.026618906173814346 -0.03390352909508406 -0.033802895186273836 0.6659145440257922 0.26956467782384091 -0.011043331368885974 0.030175136996948283 0.55946096447752303 -0.01875982697681346 0.067942170074967348 -0.024690618505659467 0.00072149464272876706 0.57442389495539492 -0.034091323647245361 0.15585212288818426 0.17517059564243745 0.16316517035965683 0.033093462383728643 -0.011364541461331252 0.65377792073681207 -0.02266665055269329 -0.033942172453247578 0.62942372408101077 0.24640032944117665 -0.0064088588875023823
leaf_weight=88.200319123454392 257.5327081317082 64.820722190663218 257.42319499514997 35.440254312939942 179.43447686731815 24.498938199132681 1.8996758572757242 10.910358331166204 0.50001836568117131 0.65885732322931279 2.1369791636243458 65.6121811196208 0.75789614673703898 46.757566160522401 1.9643706027418404 16.396799355745316 1.4461669474840158 0.82051015086472057 0.75761919654905785 0.78912854380905628 0.7117110341787346 1.2618965497240417 45.496044039726257 2.213925465010107 0.8718880983069538 26.439725561067462 1.9211998898535965 0.45231902971863736 0.53445240855216969 29.112109203822911
leaf_count=4288 18025 4166 5935 1728 9467 727 89 602 16 31 66 2152 26 2775 94 794 71 17 26 28 12 37 2039 95 27 1194 80 22 16 1342
internal_value=-0.000989347 -0.0147617 0.0181447 0.00602747 -0.00629851 -0.00829751 0.0196365 0.031042 0.145876 0.0442437 0.0266587 0.0347449 0.138318 -0.00216032 0.00701134 0.0162466 0.0221304 0.149347 0.240143 0.369218 -0.0210058 0.0177309 0.0276951 0.180749 0.363635 -0.00800406 0.0813654 0.173032 0.0387607 0.0176797
internal_weight=1167.77 679.024 488.75 231.327 421.491 112.699 118.628 83.1877 3.05855 2.55853 80.1291 68.5071 2.89488 356.67 177.236 130.478 114.081 3.81342 2.36726 1.60964 11.6221 110.268 79.4903 4.88216 2.13378 30.7776 4.33789 2.41669 2.74838 74.6082
internal_count=55987 40315 15672 9737 22290 5015 4722 2994 136 120 2858 2244 92 18124 8657 5882 5088 142 71 45 614 4946 3556 175 64 1390 196 116 111 3381
is_linear=0
shrinkage=0.05


Tree=27
num_leaves=31
num_cat=0
split_feature=11 10 7 5 6 9 9 10 7 6 6 11 8 8 6 10 10 8 11 6 1 9 11 6 8 9 6 5 6 6
split_gain=71.7116 30.0193 17.5673 11.5091 10.7127 11.7113 9.64332 10.3139 15.6612 9.53462 30.8337 36.5266 31.2485 9.52364 8.80844 8.33956 8.25211 9.25373 31.1478 49.6943 37.1769 26.0961 19.3343 10.7626 34.565 90.3255 71.8555 20.5977 11.6984 12.2587
threshold=2771.775000000001 0.58920018408258912 0.0018522677743610214 -1.0000000180025095e-35 1.1635236294426432 30.911843352723285 27.659368469373288 1.970725987693257 0.0031333188675585389 1.0682975764983993 1.0668095396166606 4687.425000000002 0.0023834778597233704 0.0021033049346202864 1.130029293834679 2.0443957467750002 0.77772417854294595 0.0024499573347826395 1922.9500000000005 1.0734696696340185 1.0000000180025095e-35 48.727561278999261 2318.2750000000005 1.1049259879571329 0.0037060740414571591 64.650127570790261 1.1075875509208049 -0.47499999999999992 1.0207261597586879 1.0195204227661188
decision_type=2 2 2 2 2 2 2 2 2 2 2 2 2 2 2 2 2 2 2 2 2 2 2 2 2 2 2 2 2 2
left_child=2 -2 -1 6 13 -6 7 8 -3 10 -8 12 -12 -4 -5 -9 -15 18 -18 20 21 22 -20 27 -25 26 -26 -19 29 -29
right_child=1 3 4 14 5 -7 9 15 -10 -11 11 -13 -14 16 -16 -17 17 23 19 -21 -22 -23 -24 24 25 -27 -28 28 -30 -31
leaf_value=-0.026012530510680417 -0.015117362620852752 0.16637479347617506 -0.024339875573926049 0.020998931485355182 0.15618689555958223 -0.033751741871566925 0.0051038742947530497 0.21486522837290939 -0.0029809232035332804 -0.016413054185830538 0.10834873373206913 -0.034097560155917486 0.57595568878075243 -0.014579450534130137 0.12181667031651466 0.060578088413120158 -0.011135583041267008 0.35505917393587744 0.47573821553525486 -0.018397707708272371 0.59796275093140738 0.031193686010778727 0.11772552622822484 -0.010484326245334869 0.71129342005294571 0.80499499188883838 0.0074569982998026335 0.0011718963766753369 -0.024367699554967377 0.1108787145165594
leaf_weight=217.42719479091465 91.484459263272583 1.4919413747265995 58.965958938002586 312.16528027597815 2.0793386884033676 1.3310667583718894 73.794253922998905 0.99680020101368239 16.05762692540884 54.358720141462982 0.69367725588381224 1.099273484200239 0.73673411458730698 62.830285239033401 2.1816735882312051 7.2173981964588165 11.050736829638483 0.38570282887667318 0.88148870598524787 3.2653526468202472 0.63325227983295906 1.5330774579197166 0.6590729346498847 10.780160601250826 0.40269313752651115 0.47693889588117588 3.6443483382463455 9.9662425871938449 42.699677401222289 3.4201994938775888
leaf_count=18609 6426 42 4246 10694 25 84 2460 20 627 2795 24 42 17 4421 19 134 710 19 29 203 40 66 28 730 26 31 234 441 2667 78
internal_value=-0.000682584 0.0110908 -0.0159911 0.0161835 -0.00585675 0.0820547 0.00510204 0.0330599 0.0114165 -0.000409797 0.0109879 0.182633 0.34919 -0.00727368 0.0216986 0.079301 -0.00068041 0.00904443 0.0410753 0.123828 0.249112 0.177239 0.322576 0.00100146 0.0381936 0.154188 0.0774909 -0.00907778 -0.0115819 0.0292017
internal_weight=994.711 562.278 432.433 470.793 215.006 3.41041 156.446 25.7638 17.5496 130.683 76.3239 2.52968 1.43041 211.595 314.347 8.2142 152.629 89.7989 18.023 6.97224 3.70689 3.07364 1.54056 71.776 15.3041 4.52398 4.04704 56.4718 56.0861 13.3864
internal_count=55987 23300 32687 16874 14078 109 6161 823 669 5338 2543 83 41 13969 10713 154 9723 5302 1076 366 163 123 57 4226 1021 291 260 3205 3186 519
is_linear=0
shrinkage=0.05


Tree=28
num_leaves=31
num_cat=0
split_feature=11 10 7 6 10 6 7 6 8 6 8 6 10 6 6 6 11 11 8 6 8 7 10 8 11 6 7 10 10 7
split_gain=159.547 56.7478 48.7513 30.4762 16.3483 16.2984 11.7377 22.5524 17.1016 24.671 14.1675 13.9355 13.4671 12.1599 10.7803 10.776 15.9527 9.92742 13.5398 31.9788 26.9196 10.8839 9.79705 9.30372 16.1615 11.3891 28.6072 8.95748 8.6032 9.27991
threshold=2771.775000000001 0.5507103415049921 0.0019377354970262206 1.0555209790536786 2.5322590746212144 1.0487038501621804 0.0012748904415994489 1.0881890710593887 0.001693738626664363 1.0940384974621935 0.0026605463467857218 1.0913938390210631 0.91582355938624704 1.0629338541288582 1.0095120384018303 1.0632302478258071 6162.2750000000015 786.6500000000002 0.0044916234348962138 1.0171892832659732 0.0040991692344621291 0.0057681031116080346 2.5322590746212144 0.0055053574099877475 13286.950000000004 1.0551677670233013 0.0037180541152932781 2.9684232166910731 0.74571804852422441 0.0058651718173251891
decision_type=2 2 2 2 2 2 2 2 2 2 2 2 2 2 2 2 2 2 2 2 2 2 2 2 2 2 2 2 2 2
left_child=2 -2 -1 23 6 14 7 -5 9 11 -8 -9 -12 -14 -4 16 -15 -16 19 -19 21 -21 -20 24 25 -3 -27 -25 -7 -30
right_child=1 3 5 4 -6 28 10 8 -10 -11 12 -13 13 15 17 -17 -18 18 22 20 -22 -23 -24 27 -26 26 -28 -29 29 -31
leaf_value=0.027134731832961664 0.014864074807221628 -0.02492596043681887 0.013770917922086177 0.034506832326747949 -0.040058138344462611 0.019097807701899186 0.0051589547475480516 -0.14307923196477176 0.034219476464967265 -0.32539113709350792 0.0017218630925245457 0.0344116998769095 0.011959255290995695 -0.0093338212165933257 0.035869530927344163 -0.030611802120776844 -0.27434584252896133 -0.2222101335185884 0.010284106240172848 -0.0101991814192631 -0.1939198397157641 -0.1059800264352465 -0.14296707204468936 -0.0081817177519506092 -0.087916463154368726 0.034969080741144319 -0.26355999797936458 -0.13304981381839018 0.0055154925235547086 -0.033747361469687057
leaf_weight=493.42350974678993 176.62819091230631 423.50250788964331 19.03074099496007 4.9341448042541733 34.023732118308544 123.97918928787112 246.64035927690566 3.5497565194964391 1.8453423418104646 1.3861663527786729 82.628745757043362 1.6063204929232595 17.760484684258699 1.1425200961530202 5.0546796936541787 79.944078478962183 1.1290041990578172 2.70216001197696 14.542466485872863 19.886429820209749 2.605572283267974 3.4858696684241286 1.1234273687005032 95.728146193549037 10.677589692175387 1.5518359672278159 1.6619157940149305 1.4581019915640343 228.96711340732872 16.108178090304136
leaf_count=19497 5681 5170 388 124 411 4303 6314 41 51 20 2033 39 376 25 73 1484 17 31 354 345 37 30 20 1403 48 30 21 12 7230 379
internal_value=0.000861854 -0.0112849 0.0163606 -0.0158526 -0.00665925 0.0042089 -0.0040916 -0.0503131 -0.10021 -0.138128 -0.00265711 -0.0877838 -0.0132141 -0.0255584 -0.018203 -0.0336631 -0.141051 -0.0305204 -0.0380877 -0.0585068 -0.0414788 -0.0244844 -0.000705791 -0.0240486 -0.0271579 -0.0256375 -0.119408 -0.0100551 0.00836459 0.00293484
internal_weight=2118.71 1187.8 930.909 1011.17 476.591 437.486 442.567 13.3217 8.38759 6.54224 429.245 5.15608 182.605 99.9761 68.4313 82.2156 2.27152 49.4006 44.3459 28.68 25.9779 23.3723 15.6659 534.58 437.394 426.716 3.21375 97.1862 369.054 245.075
